tree
version=v3
num_class=1
num_tree_per_iteration=1
label_index=0
max_feature_idx=3
objective=binary sigmoid:1
feature_names=percentintolast10 percentintolast50 closes title_count
feature_infos=[0.29999999999999999:5.29] [0.29999999999999999:5.2300000000000004] [0:1] [1:522]
tree_sizes=6608 6625 6642 6674 6654 6668 6695 6656 6651 6703 6690 6690 6658 6701 6701 6705 6687 6686

Tree=0
num_leaves=64
num_cat=0
split_feature=2 0 2 0 2 2 0 1 0 2 2 1 1 1 0 3 2 2 3 2 1 3 1 3 0 2 0 2 3 2 3 0 2 2 3 3 0 1 0 1 3 3 0 3 2 1 3 0 1 3 0 1 0 3 0 0 2 2 1 0 3 0 0
split_gain=2530.89 516.301 186.42 164.037 105.228 86.2732 43.2161 37.5909 42.7874 32.7599 27.4464 30.2627 19.8584 19.8035 12.8113 12.0777 11.9032 22.2504 12.4345 11.6122 10.8857 10.5638 10.4955 10.0391 8.89496 8.80214 8.1277 11.4386 7.40147 7.11523 6.11337 5.73965 7.72708 5.72209 5.69795 5.04588 4.91946 4.65713 4.26393 8.53391 4.24908 4.08113 4.0434 5.13572 5.24595 5.85022 4.01988 3.61956 3.60643 3.47535 3.40884 3.38107 3.33289 3.23251 3.15863 3.15766 3.12822 3.00271 2.89743 2.86816 2.85207 2.83776 3.75983
threshold=0.095000000000000015 0.93522652161938868 0.26500000000000007 0.93022652161938868 0.26500000000000007 0.055000000000000007 0.91500000000000015 0.77500000000000013 0.93022652161938868 0.39500000000000007 0.015000000000000001 1.0950000000000004 0.91500000000000015 0.85500000000000009 0.75500000000000012 79.500000000000014 0.19500000000000003 0.18500000000000003 287.50000000000006 0.13500000000000004 1.0050000000000001 465.00000000000006 1.0450000000000002 115.00000000000001 0.96500000000000008 0.065000000000000016 1.0250000000000001 0.25500000000000006 241.00000000000003 0.19500000000000003 408.50000000000006 0.81500000000000006 0.18500000000000003 0.57500000000000007 401.50000000000006 465.00000000000006 0.97500000000000009 1.0050000000000001 0.89500000000000013 0.85500000000000009 229.50000000000003 115.00000000000001 0.90500000000000014 214.00000000000003 0.52000000000000013 0.84500000000000008 286.50000000000006 0.9850000000000001 1.0150000000000003 236.50000000000003 0.70500000000000007 0.69500000000000006 0.91500000000000015 443.00000000000006 1.155 1.0150000000000003 0.23500000000000001 0.13500000000000004 0.99500000000000011 0.99500000000000011 289.00000000000006 0.72500000000000009 0.83500000000000008
decision_type=2 2 2 2 2 2 2 2 2 2 2 2 2 2 2 2 2 2 2 2 2 2 2 2 2 2 2 2 2 2 2 2 2 2 2 2 2 2 2 2 2 2 2 2 2 2 2 2 2 2 2 2 2 2 2 2 2 2 2 2 2 2 2
left_child=5 2 7 9 16 10 49 50 12 13 -1 36 31 23 28 20 17 18 19 -3 -8 33 -21 -4 -20 -17 27 58 -11 52 41 -9 38 46 -5 61 -12 47 39 60 54 -15 43 -16 45 -45 -6 -23 59 -7 -2 -37 -14 -36 -13 -19 57 -10 -18 -35 -33 -25 -63
right_child=1 4 3 34 21 6 15 8 56 14 11 40 29 30 42 25 26 55 24 22 -22 37 -24 35 -26 -27 -28 -29 -30 -31 -32 32 -34 48 53 51 -38 -39 -40 -41 -42 -43 -44 44 -46 -47 -48 -49 -50 -51 -52 -53 -54 -55 -56 -57 -58 -59 -60 -61 -62 62 -64
leaf_value=-1.1134262090373503 -1.0842512106920983 -0.93768154444227336 -0.98900371354592698 -0.98955379918501585 -0.72215324084075916 -1.0879488168837019 -1.0678584899093226 -0.99990736758334586 -1.0266095681454599 -0.74015872256308013 -1.092907625487797 -1.0482525209227953 -0.93677858297082561 -0.80617882221159054 -0.65995248580001387 -0.75528332720982994 -0.770581777887002 -1.0426508154980731 -0.91202922991250801 -0.92436865095297971 -0.89059161824311706 -0.86619709461932726 -0.74787535758693202 -0.78627032209585357 -0.75866785412378779 -0.90439054069697788 -0.76056493518171064 -0.98077743285227914 -0.90026151949939404 -0.80114503162255457 -0.81499400597147686 -0.86619709461932737 -0.97728176151635859 -0.66290939775441249 -1.1182738387318214 -0.98077743285227914 -1.0462519118425373 -0.73046346317413802 -0.98077743285227914 -0.77675050799876477 -0.89420562174293772 -0.68224920026696667 -0.67197402948347107 -0.89907666993834834 -0.7234548419291198 -0.74856128070016337 -0.68755447204100506 -0.74985398195202224 -0.63812765946992778 -1.0151515343221647 -1.033504668145319 -0.88020135818113254 -0.8301861311746852 -1.0421751989997476 -0.96768253705422747 -0.93382744060072809 -1.0092676791156077 -1.106411403714763 -0.85750479309820671 -0.76755836866226435 -0.9742299849532533 -0.89770668763338901 -0.79417516773004326
leaf_weight=598.230513215065 32.331423625349998 13.289603576064112 7.7357393950223914 9.3225577324628848 63.869438081979752 26.380854859948158 7.9340916872024518 22.810513600707054 6.5456256419420304 4.7604550123214704 157.69007228314877 7.1406825184822145 9.9176146090030688 4.1653981357812864 6.5456256419420233 4.9588073045015362 11.504432946443563 3.9670458436012259 4.3637504279613486 5.157159596681594 6.1489210575819016 5.5538641810417158 9.7192623168230039 8.1324439793825167 28.364377781748772 19.636876925826073 41.653981357812881 4.3637504279613486 7.3390348106622696 12.297842115163801 25.389093399047852 4.3637504279613548 23.405570477247238 6.1489210575818998 11.901137530803682 4.3637504279613522 26.380854859948158 23.207218185067177 4.3637504279613486 6.1489210575819007 5.3555118888616553 7.3390348106622696 12.09948982298374 4.5621027201414126 16.463240250945091 5.9505687654018402 70.811768308281898 5.1571595966815948 24.992388814687729 8.7275008559226972 22.413809016346931 14.281365036964415 4.1653981357812873 10.512671485543249 15.273126497864721 8.1324439793825132 7.3390348106622687 16.859944835305214 5.752216473221778 4.5621027201414108 5.5538641810417175 9.5209100246429426 5.5538641810417166
leaf_count=3016 163 67 39 47 322 133 40 115 33 24 795 36 50 21 33 25 58 20 22 26 31 28 49 41 143 99 210 22 37 62 128 22 118 31 60 22 133 117 22 31 27 37 61 23 83 30 357 26 126 44 113 72 21 53 77 41 37 85 29 23 28 48 28
internal_value=0 1.42775 0.582911 1.31342 2.30703 -1.12272 -0.0875329 -0.137045 0.16814 1.7664 -1.21701 -0.907688 0.506148 1.37701 2.34982 0.641592 1.62642 1.35124 1.59735 1.11024 -0.096886 2.76099 1.71712 0.964251 2.01656 1.06443 1.94386 1.44639 1.43501 1.24051 1.93179 0.215463 0.427156 2.86245 -0.74483 1.15769 -1.05449 2.25135 0.876538 1.11463 0.0654169 2.53651 2.59245 2.41359 2.22078 1.66892 2.7681 1.70592 3.21838 -0.890806 -0.827029 0.770312 0.755204 -1.0181 -0.125792 0.112644 -0.854605 -1.03322 1.81216 2.7329 0.540762 1.46892 1.21208
internal_weight=0 695.026 354.456 175.938 340.571 883.858 73.7871 178.517 123.772 144.202 810.071 211.84 93.0272 86.4816 57.7205 38.6787 136.268 72.9936 60.8942 28.166 14.083 204.303 14.8764 49.5881 32.7281 24.5957 63.2744 21.6204 12.0995 26.3809 36.8935 66.6464 43.8359 170.385 31.7364 41.8523 184.071 33.9182 20.4303 16.0665 27.7693 11.5044 45.621 33.5215 26.9759 10.5127 134.681 10.711 35.7034 35.1084 54.7452 18.6451 14.083 22.4138 22.4138 12.0995 30.7446 23.4056 17.2566 10.711 9.91761 23.2072 15.0748
internal_count=7960 3504 1787 887 1717 4456 372 900 624 727 4084 1068 469 436 291 195 687 368 307 142 71 1030 75 250 165 124 319 109 61 133 186 336 221 859 160 211 928 171 103 81 140 58 230 169 136 53 679 54 180 177 276 94 71 113 113 61 155 118 87 54 50 117 76
shrinkage=1


Tree=1
num_leaves=64
num_cat=0
split_feature=2 0 2 0 2 2 1 1 0 2 1 1 3 2 0 0 0 2 0 3 2 3 3 0 3 2 2 2 3 2 3 2 3 1 3 2 3 0 1 3 2 0 3 1 0 1 2 2 0 1 0 0 3 0 3 0 1 1 3 0 1 2 1
split_gain=2026.7 346.827 139.201 120.089 80.3102 64.3888 38.9267 31.6008 35.0282 20.956 14.6849 13.2774 12.6495 12.6194 17.8185 9.33401 8.9201 9.23491 7.98629 7.40197 6.73063 6.56843 6.47745 6.22569 6.20587 5.43439 7.96524 7.52017 6.23055 11.499 5.07101 5.01216 4.76563 5.3245 4.69499 4.46027 4.39047 4.30342 5.60185 3.50277 3.27641 3.1182 3.05574 3.03441 2.92138 2.86897 2.83064 2.79798 2.723 3.14547 2.6518 2.63111 3.45334 11.2569 4.86555 3.5067 2.70611 4.03969 2.5839 2.58266 2.52229 2.482 2.47992
threshold=0.095000000000000015 0.93522652161938868 0.26500000000000007 0.93022652161938868 0.03500000000000001 0.26500000000000007 0.95500000000000007 0.77500000000000013 0.93022652161938868 0.39500000000000007 0.91500000000000015 0.85500000000000009 205.00000000000003 0.015000000000000001 0.99500000000000011 0.64500000000000013 1.2950000000000002 0.055000000000000007 0.96500000000000008 115.00000000000001 0.19500000000000003 120.00000000000001 21.500000000000004 0.7350000000000001 465.00000000000006 0.20500000000000004 0.18500000000000003 0.19500000000000003 287.50000000000006 0.115 401.50000000000006 0.15500000000000003 214.00000000000003 0.90500000000000014 455.00000000000006 0.38000000000000006 401.50000000000006 1.0250000000000001 0.99500000000000011 465.00000000000006 0.57500000000000007 0.69500000000000006 443.00000000000006 0.88500000000000012 0.85500000000000009 1.0050000000000001 0.23500000000000001 0.13500000000000004 0.93022652161938868 0.88500000000000012 0.75500000000000012 0.81500000000000006 305.50000000000006 0.89500000000000013 123.00000000000001 0.90500000000000014 0.82500000000000007 0.87500000000000011 373.50000000000006 0.99500000000000011 0.69500000000000006 0.13500000000000004 1.0050000000000001
decision_type=2 2 2 2 2 2 2 2 2 2 2 2 2 2 2 2 2 2 2 2 2 2 2 2 2 2 2 2 2 2 2 2 2 2 2 2 2 2 2 2 2 2 2 2 2 2 2 2 2 2 2 2 2 2 2 2 2 2 2 2 2 2 2
left_child=4 2 7 9 13 18 21 41 10 11 34 19 16 -1 -15 -11 17 -8 20 -4 -3 -6 -20 -23 40 26 28 -28 29 -24 -5 -12 -17 50 51 44 -35 38 -27 -21 43 -2 -32 -7 -13 -26 47 -10 49 -25 -34 -9 53 54 -53 56 -54 -58 -33 -30 -41 -31 -19
right_child=1 5 3 30 6 24 12 8 46 15 31 35 -14 14 -16 32 -18 62 22 39 -22 23 25 48 45 37 27 -29 59 61 42 58 33 36 -36 -37 -38 -39 -40 60 -42 -43 -44 -45 -46 -47 -48 -49 -50 -51 -52 52 55 -55 -56 -57 57 -59 -60 -61 -62 -63 -64
leaf_value=-0.12767662877595343 -0.10094761544874631 0.010822207745871396 -0.0074382524073945896 -0.0079374006395309931 -0.10529243981247197 0.15186342972092648 -0.070249314080193789 -0.017960899022299054 -0.042189131403350427 0.047176014877250434 0.050796814964157194 0.13113411947767065 0.11581676929234469 -0.11302580000054485 -0.024738207107918162 0.25334314505946265 0.11515258727164149 -0.028027475337988023 0.049784747969085025 0.12374637109115234 0.12962497996784811 -0.10278417242937654 -0.040241707801986222 -0.024325073517942983 0.14232452548366978 0.18870164510290777 0.021703933951187582 0.15331446158660969 0.24271649824800756 0.090463107157559244 -0.1326843470676988 0.17685452056085818 0.099416069700093951 0.15762974580643088 0.10178916142889183 0.10104732263633903 0.26634028570317264 0.19161867903656388 0.035861273884024436 -5.1877169150843848e-06 0.25376312356588027 -0.05223715755234723 -0.056958259617608954 0.22458771063015159 0.19908143005645185 0.20242590613408923 -0.026003672450024096 -0.12047618056908337 0.02131858889674898 -0.11462521406268325 0.17505376990676724 0.042825591415191162 -0.091897991425442416 -0.065558826500537931 0.15936709373607527 0.07811309149030593 0.055481145575049462 -0.063062067054717383 0.099687226521476088 0.16795524331794415 0.086428497328341125 0.16977152192159223 0.058644612812650633
leaf_weight=561.30381953716278 27.38236203789711 8.6741084009408969 7.7067460566759101 9.2852778583765048 45.51008652150631 5.9748609066009513 16.933277294039726 21.038376927375793 6.4080102145671907 4.2018303573131552 10.453528359532358 9.0301402956247347 12.87349697947502 102.18006537854671 29.4478490203619 13.612294048070906 5.8865121603012076 4.5547671318054226 6.7296747267246237 24.692062959074974 10.59166833758354 15.934178397059439 4.0440088510513332 17.282825782895095 11.500846415758131 5.1009625345468503 10.616650760173799 7.3453793227672568 5.647607475519183 5.6616123914718655 11.139140725135805 8.7179478257894534 5.8061037063598659 5.5348721146583584 6.231639713048934 9.7834786474704725 11.299327522516249 38.420740887522697 4.5255594104528427 4.3637392818927792 40.436032727360725 25.270195588469505 10.215755894780157 144.35978901386261 21.143434554338455 25.670684337615967 7.2434302866458884 15.875291004776953 8.7680967599153501 4.9659153968095771 22.983293518424034 7.0426611900329608 4.3714912086725262 5.5566842854022971 7.291143000125885 4.1716859191656104 6.1945471018552762 5.3640010803937912 8.6391804963350278 25.414233639836311 14.918926119804381 13.022650256752966 11.995501101016997
leaf_count=3016 145 43 39 47 241 27 88 107 33 20 51 42 63 543 150 61 29 23 32 117 50 84 20 91 54 24 53 34 26 28 60 41 28 25 31 46 51 177 22 22 180 131 53 652 98 117 37 85 44 26 106 34 22 28 35 21 31 27 41 117 72 61 58
internal_value=0 1.20397 0.507733 1.11274 -1.06992 1.88015 -0.392335 -0.12616 0.148316 1.47017 0.443797 1.16432 0.297659 -1.21142 -0.932741 1.912 0.0162837 -0.183295 1.36115 0.829625 0.761359 -0.782205 1.45248 -0.519793 2.21211 1.50611 1.33182 0.755246 1.52436 1.12648 -0.696328 1.055 2.01416 1.85923 0.191085 1.59722 2.30598 1.76638 1.16849 0.988056 2.28494 -0.775694 -0.964585 2.21697 1.78747 1.83831 -0.803102 -0.979632 -0.258795 -0.444801 1.598 0.106662 0.257258 0.552669 1.02106 -0.0350479 -0.248785 0.00468534 1.38446 1.81548 0.668682 1.4574 0.347918
internal_weight=0 736.706 362.969 185.716 837.636 373.737 144.705 177.252 124.6 155.076 95.0729 91.6385 52.2436 692.932 131.628 63.4377 39.3701 33.4835 145.795 51.6815 19.2658 92.4611 126.529 46.951 227.942 119.799 71.7521 17.962 53.7901 22.7283 30.6402 27.8107 59.2359 45.6236 67.2622 39.9571 16.8342 48.0473 9.62652 43.9747 190.771 52.6526 21.3549 150.335 30.1736 37.1715 29.5267 22.2833 31.0168 22.2487 28.7894 61.0306 39.9922 19.8905 14.3338 20.1017 15.93 11.5585 17.3571 31.0618 19.2827 18.6843 16.5503
internal_count=7960 3504 1787 887 4456 1717 747 900 624 727 469 436 261 3709 693 291 198 169 687 250 93 486 594 245 1030 562 339 87 252 109 160 133 271 210 336 186 76 223 46 211 859 276 113 679 140 171 155 118 161 117 134 305 198 97 69 101 80 58 82 143 94 89 81
shrinkage=0.1


Tree=2
num_leaves=64
num_cat=0
split_feature=2 0 2 0 2 2 0 1 0 2 3 1 1 2 2 1 0 3 0 2 3 1 3 3 2 0 0 0 2 2 3 2 3 3 2 3 1 2 2 0 2 3 0 1 3 0 2 1 3 0 2 0 3 1 3 2 0 3 2 1 1 0 1
split_gain=1657.58 265.339 118.036 91.1444 52.2653 50.009 39.5342 31.7214 22.0557 14.9707 13.8838 10.79 9.52636 7.01771 10.6775 9.06747 6.60849 6.20737 6.12178 6.0127 6.25227 6.23709 5.80898 5.58724 5.34111 5.42807 5.29011 5.27632 6.29982 4.87521 4.81884 4.65062 4.69658 4.52472 4.42796 5.52604 4.1735 4.15237 4.10875 4.08404 4.04108 3.96257 3.75346 3.64247 3.34785 4.12753 4.04789 4.43557 3.22159 3.15282 3.11558 2.961 2.91916 2.58266 2.54603 2.53727 6.13763 2.38745 2.31774 2.32619 2.3121 2.63902 8.35456
threshold=0.085000000000000006 0.93522652161938868 0.26500000000000007 0.93022652161938868 0.26500000000000007 0.015000000000000001 0.99500000000000011 0.77500000000000013 0.93022652161938868 0.39500000000000007 285.50000000000006 0.91500000000000015 0.85500000000000009 0.19500000000000003 0.18500000000000003 0.96500000000000008 0.64500000000000013 289.00000000000006 1.2850000000000004 0.055000000000000007 79.500000000000014 0.79500000000000015 361.00000000000006 115.00000000000001 0.15500000000000003 0.91500000000000015 1.2050000000000003 1.0950000000000004 0.13500000000000004 0.12500000000000003 24.500000000000004 0.31500000000000006 138.50000000000003 401.50000000000006 0.13500000000000004 264.50000000000006 1.0450000000000002 0.03500000000000001 0.23500000000000001 0.99500000000000011 0.055000000000000007 455.00000000000006 1.3550000000000002 1.0150000000000003 214.00000000000003 0.90500000000000014 0.52000000000000013 0.79500000000000015 408.50000000000006 0.70500000000000007 0.14835978835978839 1.0150000000000003 443.00000000000006 1.1050000000000002 465.00000000000006 1.0000000180025095e-35 0.9850000000000001 115.00000000000001 0.57500000000000007 0.96500000000000008 0.90500000000000014 0.91500000000000015 0.93753786835582498
decision_type=2 2 2 2 2 2 2 2 2 2 2 2 2 2 2 2 2 2 2 2 2 2 2 2 2 2 2 2 2 2 2 2 2 2 2 2 2 2 2 2 2 2 2 2 2 2 2 2 2 2 2 2 2 2 2 2 2 2 2 2 2 2 2
left_child=5 2 7 9 13 55 19 49 11 12 26 41 23 14 15 17 -11 -3 22 -7 -21 -22 27 -4 25 -13 40 29 -29 43 -15 32 36 -5 35 -10 -6 42 -36 -32 -8 -9 -28 -17 -18 46 47 -46 57 -2 -31 -34 -35 -16 -25 -1 -57 -14 -33 -60 -50 62 -62
right_child=1 4 3 33 31 6 10 8 34 16 -12 24 48 30 53 18 44 -19 -20 20 21 -23 -24 54 -26 -27 37 28 -30 50 39 58 51 52 38 -37 -38 -39 -40 -41 -42 -43 -44 -45 45 -47 -48 -49 60 -51 -52 -53 -54 -55 -56 56 -58 -59 59 -61 61 -63 -64
leaf_value=-0.12833195812621584 -0.09701033283867895 -0.031220653100991549 -0.0067186053654358984 -0.0071712224355638399 0.14331839852213574 -0.10049737502072298 -0.059751230595169583 0.0057756414591883546 0.070762577628624923 0.041646741008842199 0.12070752446313437 -0.012137411366703784 0.1192831805681371 0.046984201769570605 -0.029482893548131502 0.19284678098607363 0.21208557601671618 0.11154427183809129 0.044375716650803448 -0.090165754166592726 -0.076385971875098671 0.06696280548633074 0.19263854542147499 0.10614584790397204 0.11821784450746733 0.12376532464872254 0.038497384517474302 0.10839763825835476 0.2289770841080459 0.0054349171590847133 0.099185287782878259 0.18684739299000636 0.17197324690364824 -0.12862303986704665 -0.11589966416960783 -0.086566622128879445 0.25158419961559536 0.069002534370683086 -0.023707590463282649 0.15754281637386877 0.021567053444113755 0.087563819093695094 -0.091397459223801797 0.089748135226681708 0.015893204595056408 0.21147345241586152 0.16853039925544597 0.13598597670768095 0.081351272443268619 -0.049822939867026184 0.1060038253813852 0.10431093845617477 -0.052791836628992221 0.06420626595159673 0.058489960835396697 -0.1226201984745629 -0.075014409216193456 0.20734789418848365 0.16288105882097609 0.2237352601560576 0.18537672724080734 0.19275236865670631 0.01260446937176822
leaf_weight=348.09130682051182 32.569314435124397 7.1290263980627042 7.680464342236518 9.2514689415693301 6.5796018540859205 147.18881218135357 26.804561838507652 66.434306919574738 4.7836180478334445 4.2793089300394049 8.3315356075763685 8.578442797064783 4.7659415155649176 5.5637528598308554 7.3713585883378965 5.589360877871516 14.573373198509215 5.316962406039238 8.6818425953388196 17.016501441597942 5.4521614164113981 6.8470070362091064 13.231892153620718 25.839712902903557 18.237910225987434 4.4705006629228583 4.5496503114700335 10.16622991859913 7.5514006167650214 7.8183140158653242 15.668894797563551 158.25010591745377 10.708995372056963 10.380767583847048 14.902341812849047 4.1862499415874481 7.7597368955612183 9.9452760815620405 7.1552887409925452 51.105729505419731 7.9158430546522132 6.5036512762308112 4.3530202060937881 8.8569584637880308 4.3192355036735526 10.926441147923468 22.398752346634865 10.680608361959456 11.184142708778383 25.04986746609211 5.0832317471504211 16.330035805702209 9.934910371899603 4.8969527333974838 19.801581889390945 143.16798876225948 33.400065422058105 8.6942896246910077 7.6293469667434684 35.556403383612633 6.5210267752408999 6.0848249047994605 4.9033291786909103
leaf_count=2001 181 34 39 47 28 824 141 333 24 20 40 42 21 25 37 26 61 24 39 94 30 35 58 117 82 21 23 47 33 36 71 672 47 60 85 22 33 48 37 223 38 31 22 41 20 46 97 47 50 133 23 70 53 24 94 823 192 37 32 148 29 27 22
internal_value=0 1.00405 0.409088 0.963663 1.56719 -1.06122 -0.681449 -0.143614 0.121085 1.25725 0.00619368 0.341416 1.00277 1.13112 0.947399 1.08151 1.61893 0.297689 1.22716 -0.922604 -0.509038 0.0341699 1.34383 0.721914 0.832688 0.344222 -0.180581 1.17278 1.5979 0.897372 1.36399 1.86178 1.55643 -0.65141 -0.619031 -0.0266318 2.01906 0.245939 -0.859934 1.43849 -0.412116 0.130684 -0.250156 1.29638 1.70074 1.57405 1.41608 1.01405 1.35803 -0.764957 0.450592 1.31109 -0.915396 0.0791356 0.854702 -1.23379 -1.13615 1.76166 1.92451 2.12985 1.16869 1.39556 1.11223
internal_weight=0 791.938 385.092 192.22 406.846 763.064 238.404 192.871 135.252 162.653 61.8999 104.225 95.4753 164.032 91.6935 79.4252 67.1777 12.446 66.9792 176.504 29.3157 12.2992 58.2974 53.3218 31.2869 13.0489 53.5684 45.0655 17.7176 27.3479 72.3384 242.814 41.3784 29.5671 31.0275 8.96987 14.3393 18.8479 22.0576 66.7746 34.7204 72.938 8.90267 14.4463 62.8984 48.325 37.3986 14.9998 42.1536 57.6192 12.9015 27.039 20.3157 12.2683 45.6413 524.659 176.568 13.4602 201.436 43.1858 28.6933 17.5092 11.4244
internal_count=7960 3649 1878 887 1771 4311 1295 991 677 727 312 509 436 741 422 361 291 58 303 983 159 65 264 250 145 63 272 206 80 126 319 1030 178 160 168 46 61 93 122 294 179 364 45 67 271 210 164 67 186 314 59 117 113 61 211 3016 1015 58 852 180 128 78 51
shrinkage=0.1


Tree=3
num_leaves=64
num_cat=0
split_feature=2 0 2 0 2 2 1 1 0 2 2 1 1 0 2 2 1 0 3 0 2 0 2 3 3 1 2 2 3 1 0 3 3 0 2 3 2 3 3 0 0 2 0 2 3 2 3 0 2 1 2 0 3 3 0 1 1 1 0 3 0 1 1
split_gain=1375.35 200.108 92.7145 70.8325 48.4228 40.0795 35.1152 26.8444 18.1634 11.4799 9.32037 8.96939 7.20129 6.88529 5.23674 8.11144 7.20691 6.52629 5.45268 5.07142 5.47442 4.98767 4.81334 5.93798 8.0329 6.38512 4.47081 4.43692 5.5798 5.40354 4.36179 4.07431 4.04256 4.03112 3.90428 4.53648 3.81825 3.75105 3.57994 3.47446 3.2735 7.98023 2.92115 2.86141 2.80942 2.67974 2.63306 3.18883 3.00418 3.64164 2.56617 6.00706 2.325 2.28984 2.28268 2.25994 2.25197 2.16031 2.35478 2.14728 2.2177 2.11688 2.08702
threshold=0.085000000000000006 0.93522652161938868 0.26500000000000007 0.93022652161938868 0.015000000000000001 0.26500000000000007 0.97500000000000009 0.77500000000000013 0.93022652161938868 0.39500000000000007 0.055000000000000007 0.9850000000000001 0.90500000000000014 1.2050000000000003 0.19500000000000003 0.18500000000000003 0.9850000000000001 1.0250000000000001 287.50000000000006 0.81500000000000006 0.095000000000000015 0.64500000000000013 0.28500000000000009 286.50000000000006 408.50000000000006 0.80500000000000016 0.13500000000000004 0.055000000000000007 79.500000000000014 0.79500000000000015 1.1950000000000001 455.00000000000006 401.50000000000006 0.96500000000000008 0.13500000000000004 264.50000000000006 0.23500000000000001 465.00000000000006 24.500000000000004 0.66500000000000015 1.0250000000000001 0.25500000000000006 0.70500000000000007 0.03500000000000001 443.00000000000006 0.065000000000000016 214.00000000000003 0.90500000000000014 0.52000000000000013 0.84500000000000008 1.0000000180025095e-35 0.9850000000000001 295.50000000000006 100.50000000000001 1.0150000000000003 1.1150000000000004 0.94500000000000006 1.0050000000000001 0.9850000000000001 110.50000000000001 0.96500000000000008 0.87500000000000011 0.91500000000000015
decision_type=2 2 2 2 2 2 2 2 2 2 2 2 2 2 2 2 2 2 2 2 2 2 2 2 2 2 2 2 2 2 2 2 2 2 2 2 2 2 2 2 2 2 2 2 2 2 2 2 2 2 2 2 2 2 2 2 2 2 2 2 2 2 2
left_child=4 2 7 9 50 14 27 42 11 12 13 19 22 -8 15 16 17 33 26 -9 -21 -11 -4 25 -25 -24 30 59 -29 -30 55 62 -5 -3 35 -10 -36 -7 -16 -26 41 53 -2 -15 -34 -12 -23 48 49 -48 -1 -52 -53 -40 -17 -18 -55 58 -39 -6 -61 -41 -22
right_child=1 5 3 32 6 37 10 8 34 21 45 -13 -14 43 38 54 18 -19 -20 20 31 46 23 24 39 -27 -28 28 29 -31 -32 -33 44 -35 36 -37 -38 57 40 61 -42 -43 -44 -45 -46 -47 47 -49 -50 -51 51 52 -54 56 -56 -57 -58 -59 -60 60 -62 -63 -64
leaf_value=-0.12480663930132679 -0.092325941033407133 0.006009396830402667 0.16041597813692521 -0.0064767336316471401 -0.1097007937091258 0.16679951865511877 -0.048897384557042844 -0.015958453124388903 0.061657199903428078 0.036879595121220847 0.10090908838586746 0.12598014724590975 0.13300574989674446 -0.0057388388656711758 0.041624465898809665 -0.056886765609946377 0.10386848678693 -0.064129955683025458 0.14225721128202015 -0.070093488195851789 0.022148969455410915 0.18417306951454215 -0.053809907573680871 0.20087019823220761 -0.0060594787464502489 0.080162132468793876 0.12447857481642657 -0.090674841876248385 -0.07177856808260806 0.068462127014921215 -0.034416597564011511 0.12203430542471359 -0.12516839155834086 0.11671712343530255 -0.11178033907455312 -0.08158401325928584 -0.021594817337329233 0.057421175007533576 0.18417950639967873 0.087842779005099694 0.13931331867871027 -0.0216752807273487 -0.046048312419814247 0.078799672173546775 -0.048881156497466778 0.019675943181562849 0.043249991144034383 0.1831609371395124 0.14550426858917789 0.14067798587762223 -0.11882732886013424 -0.083981099190872641 -0.016344752262264131 0.14779979321549261 0.036073815769560723 0.02071772095916697 0.063349584997776057 0.14910556947117612 0.14362990603693535 -0.089172552903026309 -0.014228992685360731 0.030769417137847695 0.062224691162436147
leaf_weight=323.40031997859478 30.887826487421989 5.4023797363042858 5.6045567989349356 9.2208326309919375 68.448401913046837 210.56181655824184 37.145518317818642 26.373064815998077 4.9324544072151202 4.345460817217826 8.3591156750917452 8.966912776231764 25.682342991232872 9.8676011413335818 5.6473873108625403 3.8402094841003409 10.380700886249544 4.5987309068441382 28.820046976208687 4.5896382480859748 40.447015970945358 15.072172060608862 7.8460744917392713 4.9407364428043357 5.7387389987707129 6.5084428191184998 15.015842765569685 15.964577555656435 5.2335318624973279 5.7837670296430588 4.5021269619464865 5.9159079790115348 9.6386763453483599 8.4078822433948499 13.955428823828699 4.0071942508220673 7.0742518007755271 6.5020819008350355 4.6587580740451875 33.903849884867668 47.173073440790176 4.7823210656642905 24.426564961671829 6.7375631779432288 9.6709910184144956 7.8977141231298438 8.2418581992387754 11.328487679362295 23.294545575976372 7.1774067580699912 133.46451838314533 25.679123491048813 6.336407095193862 5.8509887307882291 8.4621587842702848 4.7708449959754935 6.8595260828733444 28.270371407270432 6.1799329221248627 59.813838437199593 4.227593556046485 8.0398142933845502 19.145702973008156
leaf_count=2001 181 26 24 47 407 859 203 134 24 20 38 40 109 50 25 20 48 21 122 24 198 61 38 21 27 30 64 93 30 29 21 27 60 37 85 22 37 28 20 152 197 22 133 32 53 37 37 46 97 30 823 154 38 25 41 22 30 117 26 353 23 35 86
internal_value=0 0.883598 0.364614 0.84714 -1.01836 1.36099 -0.639411 -0.131912 0.107875 1.09492 -0.0490124 0.303136 0.87496 -0.249677 0.98464 0.827681 0.941411 0.390512 1.10115 0.214215 0.35485 1.40609 0.713929 0.639436 0.794947 0.0693399 0.833952 -0.898593 -0.528974 0.0184379 0.520066 0.42882 -0.609491 0.734098 -0.579096 -0.0255062 -0.814425 1.61414 1.18186 0.669181 1.24423 0.927117 -0.7189 0.285628 -0.869609 0.614453 1.47532 1.36496 1.2284 0.886011 -1.19624 -1.09496 -0.705947 1.24206 0.0705598 0.776864 1.02224 1.33722 0.994306 -0.973867 -0.842253 0.769029 0.350243
internal_weight=0 807.664 386.977 196.255 718.36 420.687 229.479 190.722 135.408 167.724 70.0075 105.438 98.2646 53.7507 169.173 94.2009 81.8986 18.409 63.4896 96.4713 70.0983 69.4599 72.5822 66.9777 52.6231 14.3545 34.6695 159.472 26.9819 11.0173 19.6537 65.5086 28.5305 13.8103 29.9693 8.93965 21.0297 251.514 74.9721 47.6824 69.3247 22.1516 55.3144 16.6052 19.3097 16.2568 65.1145 50.0423 38.7138 15.4193 488.88 165.48 32.0155 17.3693 12.3024 15.1515 12.7105 40.9524 12.682 132.49 64.0414 41.9437 59.5927
internal_count=7960 3649 1878 887 4311 1771 1295 991 677 727 360 509 436 285 741 422 361 84 277 469 335 291 327 303 235 68 155 935 152 59 91 311 160 63 168 46 122 1030 319 214 294 97 314 82 113 75 271 210 164 67 3016 1015 192 75 61 70 55 171 54 783 376 187 284
shrinkage=0.1


Tree=4
num_leaves=64
num_cat=0
split_feature=2 0 2 0 2 2 1 1 0 2 2 1 1 2 2 3 3 1 3 0 2 3 0 2 3 1 3 2 0 3 3 3 1 1 2 0 2 3 2 3 2 2 2 0 2 0 2 1 1 3 1 1 0 1 0 0 0 3 0 3 0 3 2
split_gain=1155.52 173.099 88.4072 55.921 38.6774 24.8981 23.0141 20.9053 15.2947 9.24949 8.91526 5.95651 5.44628 5.37671 5.55013 11.2337 6.546 4.32336 6.48355 5.46411 5.86614 4.0045 3.93052 3.7739 3.65415 3.62601 3.61278 3.42989 3.25601 3.75577 4.58708 2.85448 3.1487 2.9046 2.83832 2.97909 2.79876 2.7663 2.74849 2.71724 2.65821 3.55703 2.62947 5.92384 2.55544 2.54738 6.15564 2.48291 3.64831 2.38815 2.37998 5.37528 3.12992 2.35936 2.32196 2.25875 4.35951 2.23906 2.22394 3.61646 2.76606 2.0959 2.08627
threshold=0.055000000000000007 0.93522652161938868 0.26500000000000007 0.93022652161938868 0.26500000000000007 0.015000000000000001 0.79500000000000015 1.0950000000000004 0.93022652161938868 0.39500000000000007 0.095000000000000015 0.85500000000000009 0.91500000000000015 0.19500000000000003 0.18500000000000003 285.50000000000006 236.50000000000003 0.9850000000000001 79.500000000000014 1.0350000000000004 0.13500000000000004 236.50000000000003 0.64500000000000013 0.20500000000000004 67.500000000000014 0.94500000000000006 401.50000000000006 0.52000000000000013 0.83500000000000008 402.50000000000006 289.00000000000006 76.500000000000014 1.1950000000000001 1.2950000000000002 0.115 0.96500000000000008 0.19500000000000003 24.500000000000004 0.115 443.00000000000006 0.13500000000000004 0.23500000000000001 1.0000000180025095e-35 0.9850000000000001 0.38000000000000006 1.0250000000000001 0.25500000000000006 0.81500000000000006 0.79500000000000015 138.50000000000003 0.80500000000000016 0.83500000000000008 0.85500000000000009 1.2250000000000003 0.90500000000000014 0.66500000000000015 0.71500000000000008 12.500000000000002 0.90500000000000014 59.500000000000007 0.99500000000000011 295.50000000000006 0.41000000000000009
decision_type=2 2 2 2 2 2 2 2 2 2 2 2 2 2 2 2 2 2 2 2 2 2 2 2 2 2 2 2 2 2 2 2 2 2 2 2 2 2 2 2 2 2 2 2 2 2 2 2 2 2 2 2 2 2 2 2 2 2 2 2 2 2 2
left_child=5 2 6 9 13 42 28 25 10 11 21 24 23 14 15 16 17 18 -3 -19 -21 -8 -11 38 -4 -7 -5 -6 29 30 -2 53 -33 -34 -17 -36 -14 -15 -12 -28 -10 -42 -1 -44 -13 46 -39 48 49 -26 -40 -52 -53 -9 -38 -51 -57 -24 -27 -60 -61 -45 -59
right_child=1 4 3 26 27 7 8 31 40 22 12 44 36 37 -16 34 -18 19 -20 20 -22 -23 57 -25 47 58 39 -29 -30 -31 -32 32 33 -35 35 -37 54 45 50 -41 41 -43 43 61 -46 -47 -48 -49 -50 55 51 52 -54 -55 -56 56 -58 62 59 60 -62 -63 -64
leaf_value=-0.12177417319058868 -0.077693416446772093 -0.078277342372921346 -0.029383385462579743 -0.0058476277872185865 0.13633297651432702 -0.094769360425679294 -0.073522913749558161 0.014299808880690518 -0.017638208058877943 0.032740487810845535 -0.024622509761681899 0.11776453982790946 0.041249234013681496 0.036974970981429503 0.0062972542402449615 0.16942968996083899 -0.055309964970957838 0.13285356294442638 0.079222372355963896 0.022175352481441774 0.1101302896104715 0.03640673852387976 0.18729847323232093 -0.021020024737016731 0.11904678474649102 0.019275777301335062 -0.12220729289279959 0.16375988360497368 0.0093479251472846775 -0.12045532393372969 -0.013343372374112636 -0.023127598408650474 0.11471328289085408 0.01556852117555255 0.028639437021322198 0.11550767528476934 0.13478189136218219 0.10846569777002624 0.11495615910047413 -0.045208391801542652 -0.10801804548021668 -0.019653153958179181 -0.11545415198032807 -0.079641760747392223 0.061851371136232472 0.12224552984676224 -0.019671045314400878 0.025699444522522603 0.13302904494112941 -0.0027962026405845856 -0.019187025089541686 0.10461946531255784 0.028271881956208368 -0.091789915399390798 0.053823015316371049 0.14324033639615022 0.031990163060719987 0.17469751985390636 0.011163088069662999 -0.12673517150433319 -0.055487234112412555 -0.01485812202603244 0.11748133459649945
leaf_weight=299.53413717448711 37.802807927131653 5.1251517087221128 4.677954599261283 9.1930915862321871 196.39333012700081 119.21474733948708 12.117278873920442 4.0690484046936053 11.992274120450018 4.4021297544240943 6.7059623897075644 33.811758548021317 15.673368945717813 5.7177806943655005 12.322205752134321 8.2203772962093336 5.4103839546442023 11.507806360721586 5.3337454199790955 21.682332113385201 11.660972923040388 4.5610699504613867 6.2466789036989203 17.105776935815811 5.408970549702647 3.437892600893977 8.9218014478683489 59.382579132914543 5.5779594480991355 12.137110203504561 15.668890550732611 7.0787986069917705 5.4644437432289106 6.4343428015708923 4.5489658564329138 29.875744938850403 8.7464223951101285 17.866877704858783 4.2929164022207251 9.4243216365575773 13.044548034667971 6.9999258071184149 124.10986316204071 24.436021149158481 10.780198797583578 48.31435464322567 4.7446904480457297 13.242502763867376 8.6542174369096738 6.8942814767360714 11.557223305106161 10.447760775685312 11.047409474849699 4.3237609565258026 5.9543883651494971 5.0188128203153637 11.813547492027281 7.2480692416429511 5.0021865069866207 8.7997200936079043 14.310313642024992 6.276643991470336 52.775590628385544
leaf_count=2001 223 27 24 47 792 747 68 22 65 20 32 140 71 25 61 34 25 51 25 99 48 23 25 86 24 21 60 238 30 71 92 37 27 32 21 123 37 75 21 53 85 37 823 154 46 197 22 58 38 32 57 50 53 22 25 22 52 29 29 53 78 38 217
internal_value=0 0.742646 0.273058 0.752317 1.17224 -1.03882 -0.176918 -0.721949 0.0581342 0.965328 0.237821 0.770091 0.360346 0.833446 0.697355 0.77298 0.496705 0.599396 0.0204311 0.734406 0.529354 -0.434602 1.24242 0.188439 0.552069 -0.867913 -0.570142 1.42701 -0.639998 -0.702358 -0.588368 0.0820634 0.296825 0.611001 1.16636 1.04029 0.706474 1.03886 0.343237 -0.826533 -0.548788 -0.771593 -1.16305 -1.05724 1.04247 1.09281 0.815782 0.629609 0.760183 0.590843 0.449084 0.358105 0.653807 -0.403549 1.0199 0.454146 0.65161 1.3032 -0.566453 -0.659298 -0.826167 -0.664021 1.2439
internal_weight=0 858.054 409.947 198.514 448.107 632.492 211.433 178.135 140.246 170.975 108.21 100.302 91.5312 192.331 115.688 103.365 60.7204 55.31 10.4589 44.8511 33.3433 16.6783 70.6725 61.157 55.7103 150.765 27.5392 255.776 71.1868 65.6088 53.4717 27.3704 18.9776 11.8988 42.6451 34.4247 30.3742 76.6437 44.0513 18.3461 32.0367 20.0445 454.357 154.823 44.592 70.9259 22.6116 51.0323 37.7898 29.1356 37.3453 33.0524 21.4952 8.39281 14.7008 23.7266 16.8324 66.2703 31.5501 28.1122 23.11 30.7127 60.0237
internal_count=7960 3876 2013 887 1863 4084 1126 1068 710 727 523 436 432 833 514 453 275 250 52 198 147 91 291 299 250 928 160 1030 416 386 315 140 96 59 178 144 133 319 213 113 187 122 3016 1015 186 294 97 226 168 130 181 160 103 44 62 106 74 271 181 160 131 192 246
shrinkage=0.1


Tree=5
num_leaves=64
num_cat=0
split_feature=2 0 2 0 2 2 1 1 0 0 2 2 1 2 2 3 3 0 1 2 2 1 3 0 2 3 1 0 0 2 3 2 0 0 2 2 3 0 0 2 2 3 0 0 2 3 1 0 1 2 2 0 2 3 3 3 3 3 2 1 0 3 0
split_gain=976.981 137.333 71.0932 44.5812 32.6089 24.7989 19.6056 18.5957 11.6341 8.38177 7.06754 6.88863 5.31227 5.26073 4.37882 8.84623 5.23938 3.49164 3.45403 3.39898 4.84185 3.3873 5.27675 4.06721 4.64579 3.35437 3.23498 3.73666 3.45855 3.41924 3.18196 2.72081 5.87151 2.67211 3.67525 2.65772 2.59032 2.44043 3.30315 2.38714 3.31754 2.3843 2.36911 2.34678 3.99249 2.286 5.57986 2.24842 3.59316 2.24812 2.18499 2.35182 2.18448 2.08183 3.60058 1.99942 1.99914 2.67675 2.11121 1.98141 1.96237 1.92833 1.91866
threshold=0.055000000000000007 0.93522652161938868 0.26500000000000007 0.93022652161938868 0.31500000000000006 0.015000000000000001 0.77500000000000013 1.0950000000000004 0.93022652161938868 0.84500000000000008 0.095000000000000015 0.19500000000000003 0.91500000000000015 0.52000000000000013 0.18500000000000003 285.50000000000006 236.50000000000003 0.70500000000000007 0.94500000000000006 0.44500000000000006 0.36000000000000004 0.9850000000000001 79.500000000000014 1.0350000000000004 0.13500000000000004 236.50000000000003 0.90500000000000014 0.8650000000000001 0.90500000000000014 0.57500000000000007 115.00000000000001 1.0000000180025095e-35 0.9850000000000001 0.81500000000000006 0.18500000000000003 0.115 401.50000000000006 0.66500000000000015 0.70500000000000007 0.13500000000000004 0.23500000000000001 229.50000000000003 0.72500000000000009 0.91500000000000015 0.38000000000000006 286.50000000000006 0.87500000000000011 0.88500000000000012 0.83500000000000008 0.39500000000000007 0.115 0.96500000000000008 0.19500000000000003 138.50000000000003 20.500000000000004 264.50000000000006 402.50000000000006 285.50000000000006 0.19500000000000003 0.6150000000000001 0.95500000000000007 2.5000000000000004 0.90500000000000014
decision_type=2 2 2 2 2 2 2 2 2 2 2 2 2 2 2 2 2 2 2 2 2 2 2 2 2 2 2 2 2 2 2 2 2 2 2 2 2 2 2 2 2 2 2 2 2 2 2 2 2 2 2 2 2 2 2 2 2 2 2 2 2 2 2
left_child=5 2 6 9 11 31 56 18 10 13 25 14 33 30 15 16 21 -15 -7 20 -5 22 -3 -23 -25 -8 28 -28 45 43 -4 -1 -33 -12 35 -35 42 -38 -39 55 -41 -9 -32 44 -29 49 -47 48 -37 -11 -17 -52 -14 54 -13 -10 57 58 -2 -59 -6 -62 -20
right_child=1 4 3 19 60 7 8 41 39 26 12 53 52 17 -16 50 -18 -19 62 -21 -22 23 -24 24 -26 -27 27 29 -30 -31 36 32 -34 34 -36 47 37 38 -40 40 -42 -43 -44 -45 -46 46 -48 -49 -50 -51 51 -53 -54 -55 -56 -57 -58 59 -60 -61 61 -63 -64
leaf_value=-0.11914606553609906 -0.086335671567779992 -0.073315772955050526 -0.0061360743203243868 -0.017012716878765884 0.1017164106666151 -0.090700349772432937 -0.066930441657692588 -0.0078263468530240833 0.012082317734783122 0.054314061680941932 -0.015833559086088359 0.04568320505266299 0.036601636976634093 0.039308015956265714 0.005651303202416939 0.14896340734914626 -0.050861268902189054 0.13781716402550745 0.017143715858814943 0.010656115432100141 -0.11573719403238864 0.11507239933240859 0.069194756568546442 0.019797932119252282 0.097597567406802782 0.032221207923428218 0.20124963451765715 0.12234779270058881 0.14347505861061022 0.1789217149927913 0.13047224034436919 -0.11241598630331109 -0.062405983924108205 -0.0081695458567484572 -0.0011160942559878062 0.03382049418136187 -0.0097069446678872684 0.13450905620361009 0.044806092380948077 -0.10453407958122539 -0.017871054414748271 0.064811264275224406 0.059562640055879801 0.12636432493867261 0.014560964415539999 0.092901005691643723 -0.015961102463672754 0.013189697790061405 0.14076066454966671 0.14554741106875027 0.025500931375899944 0.10226664503053676 0.089809282125781126 0.087687132441092455 0.13131359279238736 -0.075868566347551764 -0.10479497040532351 -0.095800640523766911 -0.018339696336322479 -0.011319649604410328 0.1868164652152963 0.13410311170563047 -0.061766461800612786
leaf_weight=276.69897432625294 25.573585540056232 4.9349104911088926 8.2984396964311582 8.7157637178897911 18.197964742779732 112.46017752587795 12.938507393002512 21.731104746460918 8.0889399796724337 4.5339062064886111 22.403614193201065 5.9237827211618415 15.885164961218836 4.8845969885587719 12.355711907148359 8.4033398628234846 5.3011501729488364 13.661688625812529 3.4767159968614605 6.3309711068868628 11.552302211523054 11.932153105735777 5.4871547222137451 21.848118916153908 11.832253396511076 4.6340614557266226 5.9161079525947562 7.1767462491989154 8.7838646769523603 6.9801854044198981 8.3316429108381289 115.17805878818035 29.486923217773438 5.1063427329063442 23.839975267648697 5.4717360585927981 6.6097058504819861 4.7078827917575827 32.056919112801552 12.176368087530138 6.9318983554840079 5.7053913921117774 10.844328939914702 16.879335403442383 6.5937941670417786 12.633470043540003 7.5056225508451453 4.514554262161254 7.3789914548397064 6.6807331591844559 4.5953288823366156 30.341454431414604 15.004506006836889 87.286448299884796 28.704106286168098 3.7986145913600913 10.181718006730078 3.3825706839561489 5.5588627308607093 15.487716823816298 7.2068204730749121 187.2246069163084 27.09110489487648
leaf_count=2001 159 27 40 48 73 747 76 113 43 20 115 25 71 21 61 34 25 55 21 35 77 51 25 99 48 23 24 29 36 28 35 823 192 24 118 25 31 20 137 85 37 27 45 68 27 53 31 22 32 27 21 123 62 356 116 22 65 21 34 92 29 750 160
internal_value=0 0.666369 0.245882 0.672269 1.04631 -1.00316 -0.162743 -0.681326 0.0327546 0.857504 0.17687 0.792821 0.280025 0.644587 0.619523 0.68598 0.441612 1.11872 -0.825985 -0.533044 -0.732833 0.531508 0.0171516 0.649034 0.471297 -0.407832 1.08495 1.27371 0.880159 1.15756 0.520471 -1.13336 -1.02222 0.125186 0.262342 0.5525 0.597662 0.462354 0.562929 -0.512065 -0.730954 0.0727857 0.903717 1.01371 0.707359 0.724788 0.523293 0.738988 0.952264 1.08663 1.03181 0.921694 0.62447 0.959178 1.16665 -0.16022 -0.644057 -0.561815 -0.741946 -0.264632 1.33118 1.36057 -0.527914
internal_weight=0 859.611 408.036 199.678 451.575 591.828 208.358 170.464 148.173 173.079 117.177 238.946 99.6049 89.3952 117.032 104.676 61.3357 18.5463 143.028 26.599 20.2681 56.0346 10.4221 45.6125 33.6804 17.5726 83.6838 43.5462 40.1376 37.6301 70.8489 421.364 144.665 68.7152 46.3116 22.4716 62.5505 43.3745 36.7648 30.9958 19.1083 27.4365 19.176 30.6499 13.7705 31.3537 20.1391 17.3653 12.8507 11.2146 43.3401 34.9368 30.8897 121.914 34.6279 11.8876 60.1845 50.0027 31.1324 18.8703 212.629 194.431 30.5678
internal_count=7960 3876 2013 887 1863 4084 1126 1068 755 727 568 1011 469 384 514 453 275 76 928 160 125 250 52 198 147 99 343 176 167 152 308 3016 1015 336 221 103 268 188 157 187 122 140 80 124 56 131 84 79 57 47 178 144 133 497 141 65 371 306 193 113 852 779 181
shrinkage=0.1


Tree=6
num_leaves=64
num_cat=0
split_feature=2 0 2 0 2 2 1 1 0 0 1 2 2 2 0 0 2 3 1 2 3 3 1 3 0 2 1 1 0 0 0 2 0 1 0 2 0 0 3 3 3 3 3 1 1 3 3 3 1 0 2 3 1 1 2 0 1 0 3 3 0 1 1
split_gain=829.579 110.404 57.5129 35.8555 27.8626 24.7896 16.6726 16.55 9.67619 6.87995 6.07714 5.95517 5.54479 4.29686 3.70862 3.50335 3.49806 7.0832 4.23887 3.44161 3.29152 3.28296 4.50014 3.49841 3.06699 3.09375 2.99457 6.74525 2.91712 2.85354 2.85078 2.84009 5.84985 2.71655 2.95579 2.95413 2.77552 2.63165 2.52189 2.40937 2.17188 3.13434 2.16126 2.69035 3.25701 2.15438 2.14681 2.11434 2.94163 3.95213 3.28698 2.03891 3.02006 2.0358 2.02564 2.01108 1.97577 1.97284 1.96897 1.96835 1.92028 3.47278 1.90944
threshold=0.055000000000000007 0.93522652161938868 0.26500000000000007 0.93022652161938868 0.31500000000000006 0.015000000000000001 0.77500000000000013 1.0950000000000004 0.93022652161938868 0.84500000000000008 0.9850000000000001 0.095000000000000015 0.19500000000000003 0.52000000000000013 0.78500000000000014 0.94500000000000006 0.18500000000000003 285.50000000000006 0.95500000000000007 0.24500000000000002 401.50000000000006 402.50000000000006 0.85500000000000009 373.50000000000006 1.4150000000000003 0.13500000000000004 0.82500000000000007 0.84500000000000008 1.0550000000000004 0.90500000000000014 0.70500000000000007 1.0000000180025095e-35 0.9850000000000001 0.90500000000000014 0.8650000000000001 0.57500000000000007 0.90500000000000014 1.0350000000000004 115.00000000000001 443.00000000000006 10.500000000000002 289.00000000000006 76.500000000000014 1.2250000000000003 1.3450000000000004 59.500000000000007 120.00000000000001 408.50000000000006 0.84500000000000008 0.72500000000000009 0.42500000000000004 110.50000000000001 0.95500000000000007 1.2250000000000003 0.57500000000000007 0.70500000000000007 1.0150000000000003 0.99500000000000011 295.50000000000006 79.500000000000014 0.91500000000000015 0.93753786835582498 0.80500000000000016
decision_type=2 2 2 2 2 2 2 2 2 2 2 2 2 2 2 2 2 2 2 2 2 2 2 2 2 2 2 2 2 2 2 2 2 2 2 2 2 2 2 2 2 2 2 2 2 2 2 2 2 2 2 2 2 2 2 2 2 2 2 2 2 2 2
left_child=5 2 6 9 12 31 55 15 10 13 11 59 16 38 -13 51 17 18 -3 21 -5 23 -23 26 25 37 -16 -28 -27 -29 -15 -1 -33 36 -35 60 -11 -20 -4 -22 -10 -42 53 -44 -45 -17 -47 48 49 -40 -51 -7 62 -9 -6 -2 57 -56 -34 -8 61 -36 -53
right_child=1 4 3 20 54 7 8 42 40 33 -12 14 -14 30 19 45 -18 -19 24 -21 39 22 -24 -25 -26 28 27 29 -30 -31 -32 32 58 34 35 -37 -38 -39 47 -41 41 -43 43 44 -46 46 -48 -49 -50 50 -52 52 -54 -55 56 -57 -58 -59 -60 -61 -62 -63 -64
leaf_value=-0.11685293809760794 -0.076704995203265958 -0.031238404332847188 -0.0055353182441588225 -0.00084911076359406388 0.1155859681648207 -0.10041249813993852 -0.10136984987657123 0.013607035181620614 -0.12072189745646833 0.064739301850179426 0.089954360309643822 -0.030328859813272255 0.08571831343180053 0.035062082746364832 0.090761556175759345 0.011238317070051289 0.0050731779191725808 0.092059108644333185 0.074970258857578867 -0.037830099526165603 -0.11750481577691885 0.020450804208765872 0.1330551586215459 -0.033661249510268609 -0.029190837350129145 0.034491099108052259 -0.06803256014305567 0.062655280283995252 0.12684616619394729 0.00036405862388221738 0.12377369832912191 -0.10964535246633877 -0.07218834801207083 0.18012232683589147 0.11127095730853567 0.16347869332081311 0.1281066173617619 0.018291869143990756 0.10388741024475648 -0.041379554923788149 -0.0067989750853135232 -0.076076983910010887 -0.015363039492517756 0.1187656139806732 0.0063780890918709214 -0.09529535098705072 -0.0350804639588621 0.037850768791098062 0.1440978865976297 0.066930394623996581 -0.042940561229806815 -0.059787084177071043 0.016754784219240048 -0.086000447285126069 0.14078197099458648 -0.039075045956050672 0.15363552410830245 0.063120874654050099 -0.0076491558246206282 -0.024578588480215047 0.11360507554624318 0.010954081108025336 -0.09970576837356375
leaf_weight=255.02739880979061 32.873855546116829 7.4597658067941657 8.2801813036203367 8.9684057831764239 167.16033907234669 54.889236494898796 4.7717387378215781 4.0823171287775057 3.5936145931482342 31.574932426214218 10.11453542113304 13.199330657720564 122.72925619781017 4.9261412471532848 7.7492293417453757 5.0787541419267681 12.385690137743948 43.696266770362854 13.264830827713011 7.4152235537767401 7.6067206263542202 7.0959262102842313 7.1003970503807068 9.1407911181449872 4.5749545693397513 5.2784091085195533 6.7781112045049658 21.697212889790535 9.7141741961240751 11.124749809503554 13.68792913854122 106.71574394404888 22.355992317199711 5.9462567418813697 7.224945470690729 6.8801012635231009 8.8493977934122068 21.421524107456207 10.078021198511129 9.1693281978368741 14.566313877701761 11.838133186101912 8.9413948804140109 4.8927003145217878 5.4518900513648987 10.209410324692728 14.095424368977545 37.188944414258003 4.9828365296125403 6.0136413723230344 4.9759376049041748 24.556625410914421 3.5156945139169684 4.1254235506057739 7.6511565744876844 25.005412071943283 30.73825515806675 5.7138022929430008 5.9945949614047995 11.108896538615225 16.895458176732063 6.6062319427728653 23.401824474334717
leaf_count=2001 221 39 40 47 672 390 32 22 26 131 43 68 497 21 38 31 61 178 58 36 60 33 31 44 20 22 33 98 39 51 55 823 154 24 29 28 36 97 42 53 87 74 46 23 27 65 85 160 20 25 21 172 22 22 31 150 126 23 38 61 68 27 163
internal_value=0 0.601298 0.222181 0.603986 0.941177 -0.969513 -0.149728 -0.642314 0.0289657 0.766859 0.158583 0.0886603 0.708435 0.574985 0.186967 -0.785611 0.553456 0.612526 0.394401 0.269821 -0.49753 0.337811 0.767707 0.229776 0.491582 0.563734 0.339117 0.227869 0.943309 0.415422 1.00297 -1.10643 -0.989187 0.9728 1.14608 1.04249 0.786112 0.399669 0.463596 -0.758968 -0.477855 -0.37859 0.0651967 0.248103 0.595342 -0.479964 -0.603741 0.531544 0.750015 0.58659 0.171823 -0.870048 -0.727076 -0.364583 1.20616 -0.604478 1.39679 1.0758 -0.585418 -0.476525 0.909863 0.633563 -0.792658
internal_weight=0 856.817 405.029 199.855 451.788 553.334 205.173 163.241 147.294 174.111 117.296 107.182 240.525 90.1336 91.301 135.747 117.796 105.41 61.7137 78.1016 25.7445 70.6864 14.1963 56.4901 54.2539 49.6789 47.3493 39.6001 14.9926 32.822 18.6141 390.094 135.066 83.9773 43.553 37.6067 40.4243 34.6864 71.5196 16.776 29.9981 26.4044 27.4937 19.286 10.3446 29.3836 24.3048 63.2394 26.0504 21.0676 10.9896 106.363 51.4741 8.20774 211.264 57.8793 44.1032 13.365 28.3506 15.8806 30.7266 13.8312 47.9584
internal_count=7960 3876 2013 887 1863 4084 1126 1068 755 727 568 525 1011 384 432 928 514 453 275 364 160 328 64 264 236 216 220 182 61 149 76 3016 1015 343 176 152 167 155 308 113 187 161 140 96 50 181 150 268 108 88 46 747 357 44 852 371 180 54 192 93 124 56 335
shrinkage=0.1


Tree=7
num_leaves=64
num_cat=0
split_feature=2 0 2 0 2 2 0 1 0 2 2 2 1 1 2 1 3 0 1 1 0 3 1 1 2 3 0 2 0 1 3 0 3 0 0 1 0 3 3 3 1 3 1 3 1 1 1 2 2 2 2 3 3 0 0 3 1 2 2 1 1 0 0
split_gain=706.777 89.6173 46.7716 29.0079 24.7429 24.3106 14.7798 14.2314 8.75857 6.0824 4.88551 4.58527 4.44811 4.23149 3.85768 4.80773 5.50162 3.79568 3.54762 4.75343 4.76346 3.77221 3.01895 3.47412 3.00364 4.59868 2.99305 2.97672 5.82666 2.92162 2.92016 2.75805 3.23388 2.64708 3.50518 2.70817 2.60862 3.61897 3.91659 2.43996 3.00748 2.35253 2.28623 2.19523 2.4575 3.14532 2.0868 2.56029 2.5307 3.30084 3.21206 2.04632 2.74163 2.043 8.24573 2.02317 2.68834 2.00512 1.9404 1.91653 1.8297 6.20659 2.15661
threshold=0.055000000000000007 0.93522652161938868 0.26500000000000007 0.93022652161938868 0.015000000000000001 0.31500000000000006 0.94500000000000006 0.79500000000000015 0.93022652161938868 0.39500000000000007 0.095000000000000015 0.22500000000000003 1.425 1.2050000000000003 0.28500000000000009 0.79500000000000015 286.50000000000006 1.2050000000000003 0.88500000000000012 0.91500000000000015 0.96500000000000008 236.50000000000003 0.81500000000000006 0.84500000000000008 0.115 285.50000000000006 0.90500000000000014 1.0000000180025095e-35 0.9850000000000001 0.9850000000000001 401.50000000000006 0.75500000000000012 401.50000000000006 1.135 1.1850000000000003 1.2850000000000004 0.83500000000000008 402.50000000000006 289.00000000000006 138.50000000000003 1.0450000000000002 443.00000000000006 1.2950000000000002 455.00000000000006 0.80500000000000016 0.83500000000000008 1.1150000000000004 0.12500000000000003 0.14835978835978839 0.16500000000000004 0.19500000000000003 10.500000000000002 289.00000000000006 1.1450000000000002 1.1950000000000001 110.50000000000001 0.95500000000000007 0.38000000000000006 0.57500000000000007 0.96500000000000008 0.80500000000000016 0.72500000000000009 0.80500000000000016
decision_type=2 2 2 2 2 2 2 2 2 2 2 2 2 2 2 2 2 2 2 2 2 2 2 2 2 2 2 2 2 2 2 2 2 2 2 2 2 2 2 2 2 2 2 2 2 2 2 2 2 2 2 2 2 2 2 2 2 2 2 2 2 2 2
left_child=4 2 7 9 27 11 55 36 10 14 26 12 18 39 -4 16 -16 -8 -3 -20 21 -21 -17 -24 25 -22 -9 -1 -29 43 -5 32 -11 46 -35 -36 37 38 -2 40 -13 -32 -15 44 -12 -46 47 -26 -49 -50 -51 -10 -53 -41 -55 -6 60 -25 -7 -60 61 -57 -63
right_child=1 5 3 30 6 58 17 8 51 31 29 13 -14 42 15 22 -18 -19 19 20 24 -23 23 57 33 -27 -28 28 -30 -31 41 -33 -34 34 35 -37 -38 -39 -40 53 -42 -43 -44 -45 45 -47 -48 48 49 50 -52 52 -54 54 -56 56 -58 -59 59 -61 -62 62 -64
leaf_value=-0.11483954297308963 -0.066340080192531917 -0.017585830255534955 0.12158515268856594 -0.00076453112383777677 -0.097242810870889318 0.10521353742141004 -0.036660732054248586 -0.060172248320501248 -0.11840276613481714 0.095581339731840131 0.074553352969083622 0.068384051871535387 -0.015153600874626284 0.15964030348029989 -0.062606116703029249 0.11643147265841908 0.038747715787791827 0.019854865111783231 0.14269155516164753 0.058767119093914445 0.018313275778735337 -0.053616071488773356 0.0035733211332246934 0.07845927211424647 0.12123321472846993 0.10825994694372221 0.040593927518887477 -0.10708747714339484 -0.054881518411643099 0.080208213848009441 -0.11556416917515429 0.10153258890654429 0.00090104535055414773 0.14477672143335743 0.043189495735946715 0.12614529323794174 0.013530110316953493 -0.11265052196454142 -0.0046107393330831695 0.068905499275208157 0.14961754752495632 -0.038166482551030674 0.090433808396221366 0.07300298392183939 -0.032031309646823693 0.02048943062162998 0.015608103087981893 0.0029875602871272189 0.12216951676236176 0.0022767400426941032 0.081636867550519909 -0.0061430270459265678 -0.071809736705128385 -0.069414638332371867 0.1058244031436647 -0.10369068063171401 0.014922028109232922 0.031219901174113929 0.084220035457748157 0.13899115772277534 -0.0962401872988944 -0.029362277532116971 0.068404889971396071
leaf_weight=234.59577253460884 33.483292132616043 6.0905788987874976 7.6962526887655249 8.9647076725959796 51.625251099467278 165.36455443501472 38.537471875548363 11.603450551629065 3.3120380789041546 7.9657096266746503 6.412609636783599 11.375028759241106 9.0860482007265073 8.9727880954742449 7.0819154381752041 9.0626837611198408 21.970867469906807 17.182140916585922 6.6774131357669821 5.3842803537845594 26.726175487041473 6.7073409706354141 10.924424409866331 34.641463726758957 7.6670826971530905 7.2195826619863501 3.9515406191349021 98.748782679438591 27.285861313343048 8.9724530577659589 6.9924719631671897 56.287420377135277 6.5935725271701813 10.132012426853182 11.742108106613161 5.9191276580095282 5.4384135156869879 10.311169251799582 14.831085473299025 43.637168705463409 7.6043509542942038 8.9585521817207319 10.199236944317816 7.2000861167907706 14.279543593525885 56.596000954508781 8.8948245346546155 6.8716374337673178 8.6904697418212908 8.6787622123956698 12.36846314370632 14.512501552700998 11.315170675516127 5.2489603161811811 5.4973535090684891 12.682027086615564 3.5507801473140708 12.132100775837896 7.8046111017465583 35.214745104312897 21.898271113634109 7.7345947623252851 3.1854578405618668
leaf_count=2001 223 28 31 47 392 672 235 69 26 33 31 46 39 36 34 38 95 84 30 24 120 30 47 141 31 29 22 823 192 37 60 230 28 42 49 24 30 71 92 177 31 53 41 31 73 260 37 29 35 40 50 87 74 21 22 93 22 50 32 148 163 56 23
internal_value=0 0.544578 0.20116 0.544988 -0.937741 0.85113 -0.605551 -0.137657 0.0429921 0.689217 0.173168 0.63512 0.526455 0.809925 0.534696 0.479982 0.140417 -0.192331 0.570529 0.604535 0.561297 -0.0357294 0.627754 0.543475 0.62412 0.374431 -0.345739 -1.0818 -0.957852 0.259532 -0.464305 0.914979 0.527028 0.728806 0.978902 0.70992 -0.52723 -0.58869 -0.47391 0.700607 1.00931 -0.720954 1.22823 0.201914 0.152715 0.0990789 0.598079 0.686873 0.576826 0.703213 0.489129 -0.444014 -0.349118 0.592871 0.202301 -0.834248 -0.688816 0.662064 1.10135 1.29055 -0.754215 -0.561058 -0.00842892
internal_weight=0 851.266 401.491 199.272 517.026 449.775 156.396 202.219 138.155 174.356 109.016 241.391 148.856 92.5349 103.51 95.8135 29.0528 55.7196 139.77 133.679 127.002 12.0916 66.7607 57.698 114.91 33.9458 15.555 360.63 126.035 93.4607 24.9157 70.8467 14.5593 80.9645 27.7932 17.6612 64.064 58.6255 48.3144 73.3629 18.9794 15.951 19.172 84.4882 77.2882 70.8755 53.1712 44.2764 36.6093 29.7377 21.0472 29.1397 25.8277 54.3835 10.7463 100.676 49.0511 46.7736 208.384 43.0194 45.5004 23.6021 10.9201
internal_count=7960 3876 2013 887 4084 1863 1068 1126 710 727 523 1011 637 374 436 405 129 319 598 570 540 54 276 238 486 149 91 3016 1015 432 160 291 61 337 115 73 416 386 315 297 77 113 77 395 364 333 222 185 154 125 90 187 161 220 43 749 357 191 852 180 335 172 79
shrinkage=0.1


Tree=8
num_leaves=64
num_cat=0
split_feature=2 0 2 2 0 2 0 1 0 0 1 2 2 0 1 1 2 2 0 1 1 0 3 2 2 0 2 0 2 3 1 2 3 0 3 0 1 2 3 0 0 0 3 3 0 0 3 1 3 1 1 3 3 1 1 2 3 1 3 3 3 2 0
split_gain=603.443 73.3812 38.1223 24.7298 23.5511 21.3899 13.5291 12.1702 6.68434 5.24197 3.94289 4.11199 3.80709 3.70072 3.51756 3.41501 3.30837 3.13649 5.81788 2.84971 3.63042 3.83208 3.06031 2.81848 4.32347 2.72938 2.69419 2.39208 3.21411 3.2642 2.32517 2.52733 2.31101 3.65214 2.7799 2.43179 2.30804 2.31545 3.21069 2.30147 2.16681 2.14409 2.11157 3.15903 2.85662 2.40022 2.04834 2.55808 1.96731 2.3934 1.9312 1.92837 2.39297 1.91858 3.21819 1.91405 3.61501 4.45128 1.89964 1.88759 2.03065 1.87271 1.86757
threshold=0.055000000000000007 0.93522652161938868 0.26500000000000007 0.015000000000000001 0.93022652161938868 0.31500000000000006 0.94500000000000006 0.77500000000000013 0.93022652161938868 0.84500000000000008 0.9850000000000001 0.095000000000000015 0.22500000000000003 1.425 1.2050000000000003 1.0950000000000004 0.52000000000000013 1.0000000180025095e-35 0.9850000000000001 0.88500000000000012 0.91500000000000015 0.96500000000000008 236.50000000000003 0.44500000000000006 0.36000000000000004 0.78500000000000014 0.24500000000000002 0.97500000000000009 0.115 285.50000000000006 0.90500000000000014 0.57500000000000007 402.50000000000006 0.87500000000000011 373.50000000000006 0.90500000000000014 1.1450000000000002 0.075000000000000025 152.50000000000003 0.90500000000000014 0.70500000000000007 0.91500000000000015 25.500000000000004 305.50000000000006 1.0350000000000004 1.135 138.50000000000003 1.0450000000000002 110.50000000000001 0.95500000000000007 1.2950000000000002 10.500000000000002 289.00000000000006 0.80500000000000016 0.84500000000000008 0.20500000000000004 455.00000000000006 1.0950000000000004 79.500000000000014 59.500000000000007 120.00000000000001 0.57500000000000007 0.90500000000000014
decision_type=2 2 2 2 2 2 2 2 2 2 2 2 2 2 2 2 2 2 2 2 2 2 2 2 2 2 2 2 2 2 2 2 2 2 2 2 2 2 2 2 2 2 2 2 2 2 2 2 2 2 2 2 2 2 2 2 2 2 2 2 2 2 2
left_child=3 2 7 17 9 12 48 -2 10 16 11 58 13 19 46 59 -4 -1 -19 -3 -21 22 -22 24 -6 -13 32 -23 29 36 39 62 34 -34 35 53 37 -29 -39 -11 -18 -37 -30 44 -44 -46 47 -14 -5 -50 -16 -10 -53 -27 -55 56 57 -45 -9 -8 -61 -7 -32
right_child=1 5 4 6 23 61 15 8 51 30 -12 25 14 -15 50 -17 40 18 -20 20 21 27 -24 -25 -26 26 -28 28 42 -31 31 -33 33 -35 -36 41 -38 38 -40 -41 -42 -43 43 55 45 -47 -48 -49 49 -51 -52 52 -54 54 -56 -57 -58 -59 -60 60 -62 -63 -64
leaf_value=-0.11306129036146254 -0.053264213494985418 -0.015900892661484995 0.035846933832022906 -0.094025173172672949 -0.011045885925200906 0.096252915166637476 0.013513375600853868 -0.096748600663626366 -0.11637875630633021 0.050552420904830087 0.071764648560654981 -0.02739890955819382 0.061666362003486054 -0.016512198950197489 0.1455319200717386 0.0077529365092012387 0.026959167760937743 -0.10469722432760153 -0.051325671845963587 0.12514396203800002 0.052149211780243614 0.11797585963582585 -0.049059358170310201 0.01491570340305026 -0.10939064929050482 0.1004845575780504 -0.035627666391810829 0.055202823165897856 0.0044165773930935973 0.089616164857688127 0.11179898454058652 0.14736138943904517 0.022689801489288688 0.12496961137309073 -0.031859871185468597 -0.064433785290556642 0.058062160630170223 -0.085168495036415798 0.011805166190911766 0.10843483910878356 0.10415963963626818 0.022688973320836775 0.12954686865558382 -0.055410317003462398 0.040125868495075989 0.097319097142446617 0.0533204091434916 0.13698164351152683 -0.071755961815542169 0.013306080308473585 0.0816685804082804 -0.0055483467508174143 -0.06771776463226474 -0.017849966755105171 0.052938478093968747 0.084335837421205484 0.077699444890508021 0.059415184882466582 -0.018523923594420826 -0.089870547833624304 -0.029392695643917499 0.12000197820328473 0.064973630124626827
leaf_weight=215.43810204416513 53.83349834382534 6.0638424009084693 72.33363950252533 48.229292079806328 8.406446993350988 162.81482473015785 5.0142945647239712 4.3725806027650824 3.0462901890277889 31.790974617004395 10.373802706599234 12.960094168782232 11.353706121444704 8.5745374262332898 8.8633639514446276 27.089442163705826 4.981698855757716 91.287347696721554 26.31085017323494 6.8424379974603644 5.4566620290279371 5.9044127166271201 6.6029414385557175 6.1885456293821326 9.5469027906656247 4.7845894694328299 7.3301745504140845 4.3138643801212408 5.5935121178627005 6.4294261932373038 14.811547949910162 7.9477896243333808 8.7266197353601438 5.8191320449113837 9.0568503290414792 4.5624596476554853 7.1575319319963446 5.8481749892234793 8.2034575790166837 8.7627176940441114 13.455306529998778 7.4165427684783936 11.220790684223173 7.4634283035993576 13.932107090950014 15.502660453319548 54.419185221195221 7.4812472760677329 43.210855975747108 3.5820493251085272 10.165965154767035 14.463861063122751 10.825046598911284 9.0315127819776553 22.229471027851105 8.7012428045272845 9.184992790222168 6.1645437777042389 10.704292088747023 9.4169710874557513 13.526883155107496 41.708719328045845 20.044292539358139
leaf_count=2001 371 28 308 392 48 672 31 32 26 131 43 68 46 37 36 138 21 823 192 30 24 25 30 35 77 22 36 20 24 26 60 34 39 25 44 21 32 26 36 36 55 34 46 34 57 63 220 31 335 22 41 87 74 45 98 35 37 27 61 65 85 180 82
internal_value=0 0.494484 0.18224 -0.907037 0.492793 0.773009 -0.569992 -0.126342 0.0237744 0.621124 0.129015 0.0719431 0.571443 0.472674 0.731088 -0.175506 0.454854 -1.05891 -0.927561 0.511574 0.541802 0.503772 -0.0326507 -0.432813 -0.633419 0.15134 0.221154 0.559722 0.526355 0.259342 0.80218 0.964746 0.280246 0.636076 0.189572 0.285407 0.0989233 -0.0888076 -0.285545 0.630595 0.833 -0.104936 0.636069 0.681944 0.866145 0.702483 0.63158 0.915816 -0.798523 -0.652444 1.11414 -0.412145 -0.321603 0.41513 0.324872 0.444311 0.292108 -0.0346959 -0.412106 -0.420679 -0.542149 1.01096 0.848715
internal_weight=0 843.774 397.807 483.106 198.27 445.968 150.07 199.537 145.703 174.128 117.368 106.994 241.444 149.161 92.2835 55.0476 90.7706 333.036 117.598 140.586 134.522 127.68 12.0596 24.1419 17.9533 91.9174 78.9574 115.62 109.716 31.9525 83.3573 42.8036 71.6272 14.5458 57.0814 48.0246 25.523 18.3655 14.0516 40.5537 18.437 11.979 77.7633 72.1698 40.6556 29.4348 73.2541 18.835 95.0222 46.7929 19.0293 28.3352 25.2889 36.0456 31.261 31.5142 22.813 13.628 15.0769 27.9581 22.9439 204.524 34.8558
internal_count=7960 3876 2013 4084 887 1863 1068 1126 755 727 568 525 1011 637 374 319 384 3016 1015 600 572 542 54 160 125 432 364 488 463 140 343 176 328 64 264 220 114 82 62 167 76 55 323 299 166 120 297 77 749 357 77 187 161 165 143 133 98 61 93 181 150 852 142
shrinkage=0.1


Tree=9
num_leaves=64
num_cat=0
split_feature=2 0 2 2 0 2 0 1 0 3 3 1 3 3 2 2 0 2 2 1 0 0 1 2 3 3 0 1 1 0 3 1 0 3 3 3 3 1 3 2 1 2 1 1 2 3 3 0 3 1 0 0 2 3 1 3 2 0 1 3 1 0 2
split_gain=516.088 60.4335 31.1016 24.6903 19.168 18.8984 12.3182 10.3293 6.04072 4.85284 7.31381 5.24171 3.40018 6.0983 4.56318 3.31266 5.80393 3.29649 3.18077 3.13596 3.12188 6.18115 2.87057 2.68944 2.64429 2.58805 2.50809 2.25984 2.88189 3.02056 2.48669 2.19969 3.45851 2.18217 3.65273 2.10381 2.00006 1.9577 2.98228 2.52796 1.96456 5.39785 2.25082 1.95153 2.461 2.24731 3.72407 2.16001 1.98653 2.16215 1.97516 1.93312 2.33502 2.61768 2.01256 1.92101 2.14923 2.45993 2.56519 1.89835 1.89534 1.87655 1.86636
threshold=0.055000000000000007 0.93522652161938868 0.26500000000000007 0.015000000000000001 0.93022652161938868 0.31500000000000006 0.94500000000000006 0.79500000000000015 0.93022652161938868 12.500000000000002 59.500000000000007 0.90500000000000014 401.50000000000006 192.00000000000003 0.28500000000000009 1.0000000180025095e-35 0.9850000000000001 0.095000000000000015 0.22500000000000003 1.5050000000000001 1.1950000000000001 1.1450000000000002 1.0950000000000004 0.57500000000000007 401.50000000000006 236.50000000000003 0.70500000000000007 0.88500000000000012 0.91500000000000015 0.96500000000000008 236.50000000000003 0.87500000000000011 0.75500000000000012 71.500000000000014 100.50000000000001 443.00000000000006 285.50000000000006 1.0150000000000003 465.00000000000006 0.57500000000000007 0.91500000000000015 0.44500000000000006 0.87500000000000011 0.91500000000000015 0.20500000000000004 123.00000000000001 264.50000000000006 0.85500000000000009 289.00000000000006 0.85500000000000009 0.84500000000000008 0.97500000000000009 0.115 285.50000000000006 1.1450000000000002 110.50000000000001 0.03500000000000001 0.91500000000000015 0.75500000000000012 295.50000000000006 0.82500000000000007 0.75500000000000012 0.075000000000000025
decision_type=2 2 2 2 2 2 2 2 2 2 2 2 2 2 2 2 2 2 2 2 2 2 2 2 2 2 2 2 2 2 2 2 2 2 2 2 2 2 2 2 2 2 2 2 2 2 2 2 2 2 2 2 2 2 2 2 2 2 2 2 2 2 2
left_child=3 2 7 15 9 18 55 26 17 -4 -11 12 13 14 -12 -1 -17 25 19 27 21 -20 -8 -13 -6 -9 -2 -3 -29 30 -30 32 -14 -28 -35 -26 -36 38 40 -39 42 -42 -7 44 45 47 -47 -19 -48 50 -50 -31 53 54 62 -5 -57 58 -58 -18 -60 -16 -53
right_child=1 5 4 6 24 37 22 8 -10 10 11 23 31 -15 61 16 59 43 20 -21 -22 -23 -24 -25 35 -27 33 28 29 51 -32 -33 -34 34 36 -37 -38 39 -40 -41 41 -43 -44 -45 -46 46 48 -49 49 -51 -52 52 -54 -55 -56 56 57 -59 60 -61 -62 -63 -64
leaf_value=-0.11148171452220455 -0.067190582399394405 -0.014372606433443028 0.13549702295398056 -0.090910844504825519 0.0031226234043450849 0.060237016097678203 -0.038988481995929733 -0.057171049339412611 -0.038212101920446474 -0.047740907463061977 0.088547590389156203 0.074967126332620634 0.011931885606784912 0.10070381992703206 0.020880552316918297 -0.10243690523269966 -0.062421748603491783 -0.065387551511963724 0.066403926365197138 -0.02862119508247532 0.09972694819925787 -0.028733954560902299 0.0069527267844239973 0.14121014067632473 -0.1124288015411677 0.033146300478781865 -0.096703592304743013 0.11090788503079695 0.046411371713122367 0.10514231046245143 -0.044877707875467257 -0.0057497649627127482 0.059984771452170876 0.081651346294079885 -0.067826861865297849 -0.035187546647852348 -0.0077733483396579513 0.092979967458932042 0.010698340823365269 0.12675855140874728 0.10155646942487913 0.025935298520694424 0.14378006630605333 0.041201150831527686 -0.02152865950787005 0.099786970289627394 -0.03183289587869069 0.024540076019996252 0.039179670839352428 0.077661862000416998 -0.03838217121264155 0.048804616659366654 0.055884684019176671 0.081548441916161285 0.052803717756072822 -0.078228724442636788 -0.065419259184201481 -0.11972215884895199 0.085887296295925328 0.0035911024711589717 -0.016182826620102852 -0.068491254642182378 -0.025995141176656453
leaf_weight=197.55678762495518 29.156695932149887 6.0391291975975028 7.3628067076206198 45.058323875069618 8.7820007652044314 4.7661138474941245 27.221731923520565 10.352898880839346 27.584627173841 6.9689526557922354 5.9456559121608725 38.300800353288651 25.171934708952904 23.996956795454025 4.7428994476795179 84.329973489046097 19.828692734241489 4.9535974711179716 62.776998996734619 5.9459198266267768 21.323167279362679 7.6626532375812522 27.181391105055809 7.2964656054973593 5.8996376395225516 4.5746336728334418 3.8561709374189403 6.9426019042730323 5.5148203969001752 5.95918284356594 6.5018550157546997 12.306596696376799 36.984529718756676 3.3379345536232021 8.8194993436336535 8.765077278017996 14.940796852111815 110.83711576461792 5.900818094611167 27.691149562597275 26.072506666183472 14.7957496792078 9.9730232357978803 31.899041995406151 17.098075464367867 7.1378009170293799 6.0616885274648693 5.796367734670639 8.7963170558214205 7.1913605630397788 5.2385836243629447 4.3872720152139726 79.803526028990746 6.3624080270528784 7.7231909930706015 28.439500443637371 5.8182318359613436 2.7043586224317542 2.9286976233124733 5.5828460156917563 4.8023551031947136 4.6555712521076202 13.917902290821074
leaf_count=2001 222 28 32 392 47 20 181 68 187 33 24 157 107 99 21 823 154 24 256 26 87 31 138 32 60 23 26 30 24 25 30 50 152 21 57 53 90 467 24 126 110 63 42 133 86 33 29 27 43 33 24 20 332 26 34 232 47 20 22 38 36 20 62
internal_value=0 0.449892 0.165274 -0.87726 0.445969 0.704221 -0.535814 -0.115967 0.0359629 0.560509 0.525349 0.569189 0.454406 0.692209 0.199843 -1.03743 -0.898128 0.14167 0.515546 0.425393 0.662028 0.560545 -0.160349 0.855673 -0.402738 -0.294927 -0.461438 0.45495 0.481318 0.447837 -0.0298235 0.328767 0.405245 -0.263193 -0.163034 -0.662618 -0.300644 0.931402 0.782938 0.997321 0.854667 0.741789 1.16765 0.210876 0.107847 0.230146 0.354781 -0.168987 0.186567 0.330752 0.102294 0.496417 0.466938 0.240494 0.0999427 -0.763403 -0.616506 -0.326434 -0.15263 -0.479189 0.224836 -0.233901 -0.0806759
internal_weight=0 834.873 393.976 451.453 197.18 440.897 144.155 196.796 136.685 173.733 166.37 159.401 113.804 39.3411 15.3441 307.298 109.742 109.1 240.861 149.098 91.7628 70.4397 54.4031 45.5973 23.4467 14.9275 60.1111 143.152 137.113 130.17 12.0167 74.4631 62.1565 30.9544 27.0982 14.6647 23.7603 200.036 61.5082 138.528 55.6074 40.8683 14.7391 94.1728 62.2738 45.1757 34.4258 10.75 27.2879 21.2263 14.0349 118.153 112.194 32.3908 26.0284 89.7515 44.6931 16.2536 13.5493 25.4115 7.73105 9.39847 18.3052
internal_count=7960 3876 2013 4084 887 1863 1068 1126 710 727 695 662 473 164 65 3016 1015 523 1011 637 374 287 319 189 160 91 416 611 583 553 54 309 259 194 168 113 147 852 259 593 235 173 62 432 299 213 162 51 129 100 67 499 474 142 116 749 357 125 105 192 58 41 82
shrinkage=0.1


Tree=10
num_leaves=64
num_cat=0
split_feature=2 0 2 2 2 0 0 1 0 3 3 1 2 0 3 3 2 3 1 2 2 3 1 3 2 3 0 2 2 2 0 3 3 1 0 2 2 1 3 3 3 1 1 0 0 2 3 1 0 3 1 1 0 3 2 3 1 1 0 3 3 1 1
split_gain=441.91 49.8672 25.4904 24.626 16.8668 15.6708 11.1964 8.70007 4.96994 4.1896 5.9708 4.20711 3.49745 5.76656 3.29313 4.32044 3.58137 3.1449 2.7776 2.9419 3.26141 3.27562 4.55452 3.08104 2.68505 2.67922 2.56794 2.4272 2.37228 3.9293 2.2505 1.94501 2.89667 1.93629 4.78406 2.58942 1.88215 2.34415 1.87759 2.14016 1.86985 2.25814 1.90941 5.99727 1.85254 2.72507 1.83191 2.78196 2.48288 2.09256 1.7987 1.77127 2.79855 1.82099 1.75761 1.73823 1.73296 1.73115 3.44005 3.17827 1.72394 1.71093 5.39827
threshold=0.055000000000000007 0.93522652161938868 0.26500000000000007 0.015000000000000001 0.31500000000000006 0.93022652161938868 0.94500000000000006 0.79500000000000015 0.93022652161938868 12.500000000000002 67.500000000000014 0.90500000000000014 1.0000000180025095e-35 0.9850000000000001 401.50000000000006 192.00000000000003 0.28500000000000009 14.500000000000002 1.7150000000000001 0.19500000000000003 0.18500000000000003 285.50000000000006 0.95500000000000007 138.50000000000003 0.095000000000000015 292.00000000000006 0.90500000000000014 0.57500000000000007 0.44500000000000006 0.36000000000000004 0.70500000000000007 71.500000000000014 100.50000000000001 0.96500000000000008 1.0050000000000001 0.57500000000000007 0.36000000000000004 0.93753786835582498 10.500000000000002 289.00000000000006 110.50000000000001 0.95500000000000007 0.80500000000000016 0.72500000000000009 1.0050000000000001 0.38000000000000006 69.500000000000014 1.0550000000000004 1.0350000000000004 111.50000000000001 0.9850000000000001 0.87500000000000011 0.83500000000000008 443.00000000000006 0.44500000000000006 285.50000000000006 1.0550000000000004 0.93753786835582498 0.91500000000000015 408.50000000000006 241.00000000000003 0.75500000000000012 0.78500000000000014
decision_type=2 2 2 2 2 2 2 2 2 2 2 2 2 2 2 2 2 2 2 2 2 2 2 2 2 2 2 2 2 2 2 2 2 2 2 2 2 2 2 2 2 2 2 2 2 2 2 2 2 2 2 2 2 2 2 2 2 2 2 2 2 2 2
left_child=3 2 7 12 17 9 40 30 24 -4 -11 14 -1 -14 15 16 -12 56 19 20 21 22 -19 -21 26 -8 -9 57 29 -7 -2 -32 -33 34 36 44 -6 -38 -10 -40 -5 42 43 -42 45 -35 47 -24 -48 -50 -46 52 -16 -53 -17 -34 -3 -13 59 -59 -60 -45 -63
right_child=1 4 5 6 33 28 25 8 38 10 11 27 13 -15 51 54 -18 18 -20 23 -22 -23 46 -25 -26 -27 -28 -29 -30 -31 31 32 55 35 -36 -37 37 -39 39 -41 41 -43 -44 61 50 -47 48 -49 49 -51 -52 53 -54 -55 -56 -57 -58 58 60 -61 -62 62 -64
leaf_value=-0.11007065707400342 -0.063523676793065392 -0.053475459696385987 0.12573221259686226 -0.087870566284235924 0.035282943175905676 -0.0081885707255009935 -0.02330149542587065 -0.052269735498801054 -0.11406502673134133 -0.033947434502231914 0.080304065096444388 0.095116045959038636 -0.10027466013660849 -0.044710170742759986 0.023504745112447961 0.12246562910396763 -0.02261383676815136 -0.045474686639220725 -0.027774979161879144 0.089737512653540949 -0.0092266612205690324 0.065668673517388837 0.011106536728042809 0.052084796635296873 0.018878280398158413 0.042659160682129341 0.042719437146149258 0.13311206978862786 0.015540782976242611 -0.10544631716795703 -0.09295782531711036 0.070024627083990251 -0.063808743135553958 0.095391980840153975 0.00021328410547037844 0.11621955035503817 0.07804357432291667 0.15717138013794815 -0.001254855491860304 -0.061523778496706039 -0.09643725834905853 0.019211710918872846 -0.088278476898439429 -0.040359740836958036 0.14264707025110951 0.025836088182933061 0.062432748964117969 0.10730309249996597 -0.037404519928353419 0.028546975257006404 0.086582040044275679 0.026391719212925581 0.071298410581835517 -0.052063441101446534 0.067627363249448583 -0.0070285776067633993 0.032506821276750572 0.063691793403972463 0.041562957910341723 -0.043947562875707377 0.11767732280748598 0.13567884499854951 -0.051851021699828949
leaf_weight=180.93097212910652 27.826400488615036 4.6635093539953214 7.1520817428827277 42.109178595244884 5.2400445342063966 8.2600056231021934 46.734697110950947 10.764142736792563 2.7177367359399822 8.5247073322534543 5.9025702476501447 14.590418592095373 77.86665291339159 24.571538195014 45.61534757912159 10.412411347031595 7.9152777343988419 7.1725628525018683 4.6392448991537085 29.078043758869171 12.549657374620436 42.898419260978699 4.7419772297143927 86.026773869991302 94.499840915203094 7.0925279408693305 3.868945598602294 6.7627398222684851 6.1633411496877661 8.3565622568130475 3.6225897967815426 3.493849620223048 8.4566979855299014 10.549385190010073 8.6865362524986249 31.457742676138878 11.498046636581423 5.5515923351049414 14.116998016834261 10.112594842910765 10.653506383299829 3.4643186330795279 18.58660601079464 3.9270561560988408 6.0557655394077292 12.085253581404684 13.267531976103781 8.2134011238813383 7.0178790390491512 15.298314854502676 103.93246428668499 7.3525403887033445 16.7505072504282 4.9503315985202789 13.322871550917624 14.875200986862181 4.7130191922187805 5.5441359877586383 4.9527893215417844 5.4296352863311768 7.4543845057487488 3.144997201859951 2.998567134141922
leaf_count=2001 222 20 32 392 22 48 281 69 26 40 24 60 823 192 191 44 35 36 20 121 60 177 20 350 432 38 22 31 35 77 26 21 57 45 37 148 50 24 87 74 93 22 163 32 26 52 56 34 30 67 448 30 68 20 55 90 20 23 21 22 31 24 23
internal_value=0 0.409883 0.150068 -0.848116 0.6425 0.405108 -0.502877 -0.106359 0.0320955 0.507976 0.47559 0.519858 -1.01711 -0.869466 0.416491 0.658043 0.213496 0.465153 0.488207 0.503912 0.38788 0.448986 0.289054 0.615967 0.127059 -0.146102 -0.271549 0.77917 -0.374463 -0.571 -0.42967 -0.241805 -0.148927 0.860966 0.631658 0.904256 0.876991 1.03809 -0.352495 -0.26409 -0.729118 -0.581858 -0.650066 -0.44135 0.843074 0.582542 0.398965 0.720929 0.281744 0.078069 0.896689 0.295007 0.363414 -0.0517644 0.916843 -0.276087 -0.102573 0.680867 0.512195 0.104337 0.872934 0.111945 0.441488
internal_weight=0 825.105 389.768 422.081 435.337 195.413 138.711 194.355 136.08 172.633 165.481 156.956 283.369 102.438 112.222 37.5531 13.8178 240.28 230.904 226.265 111.16 98.6101 55.7117 115.105 109.133 53.8272 14.6331 44.7341 22.7799 16.6166 58.2747 30.4483 26.8257 195.057 30.9762 164.081 22.2897 17.0496 26.9473 24.2296 84.8842 42.7751 39.3107 20.7241 132.623 22.6346 48.5391 12.9554 35.5837 22.3162 109.988 74.6687 62.3659 12.3029 23.7353 23.3319 9.37653 37.9714 23.3809 10.9738 12.4072 10.0706 6.14356
internal_count=7960 3876 2013 4084 1863 887 1068 1126 710 727 695 655 3016 1015 467 158 59 1011 971 951 480 420 243 471 523 319 91 188 160 125 416 194 168 852 133 719 96 74 187 161 749 357 335 172 571 97 207 54 153 97 474 309 259 50 99 147 40 157 97 45 52 79 47
shrinkage=0.1


Tree=11
num_leaves=64
num_cat=0
split_feature=2 0 2 2 2 0 0 1 0 2 0 3 3 1 3 0 3 3 3 2 3 2 3 1 2 1 3 1 3 3 3 0 0 0 1 1 1 2 0 3 1 0 1 1 2 3 1 1 1 0 1 1 0 2 2 0 1 0 0 1 3 3 3
split_gain=378.728 41.3006 24.487 20.9369 15.0185 12.8565 10.1784 7.32098 4.10384 3.69995 5.72829 3.64132 4.98351 3.87455 2.56617 2.56494 2.56368 2.43113 4.1645 3.02975 2.37702 2.36382 4.0034 2.80036 2.3621 2.21763 2.13478 3.26445 4.07864 2.0779 2.29351 3.41633 2.00921 1.98154 3.06826 1.94581 2.80093 1.93119 1.89227 2.43868 2.52561 2.35335 5.35099 3.79801 2.67804 1.88526 1.88364 3.86516 1.88186 1.8399 1.95218 2.20941 2.05085 2.16293 1.88685 1.81788 2.01078 1.79804 4.29275 2.68009 1.94897 2.45731 2.23302
threshold=0.055000000000000007 0.93522652161938868 0.015000000000000001 0.26500000000000007 0.31500000000000006 0.93022652161938868 0.94500000000000006 0.79500000000000015 0.93022652161938868 1.0000000180025095e-35 0.9850000000000001 12.500000000000002 59.500000000000007 0.90500000000000014 14.500000000000002 1.2050000000000003 17.500000000000004 401.50000000000006 192.00000000000003 0.28500000000000009 401.50000000000006 0.22500000000000003 138.50000000000003 1.385 0.57500000000000007 0.9850000000000001 455.00000000000006 1.2850000000000004 373.50000000000006 36.000000000000007 63.000000000000007 0.99500000000000011 0.70500000000000007 1.0250000000000001 1.0350000000000004 1.2050000000000003 1.2950000000000002 0.8650000000000001 0.93022652161938868 120.00000000000001 0.92500000000000016 0.72500000000000009 0.78500000000000014 0.75500000000000012 0.03500000000000001 443.00000000000006 0.80500000000000016 0.83500000000000008 0.95500000000000007 0.95500000000000007 1.5150000000000003 1.1950000000000001 1.0750000000000004 0.36000000000000004 0.57500000000000007 1.1050000000000002 1.1150000000000004 0.81500000000000006 0.84500000000000008 0.87500000000000011 75.500000000000014 402.50000000000006 373.50000000000006
decision_type=2 2 2 2 2 2 2 2 2 2 2 2 2 2 2 2 2 2 2 2 2 2 2 2 2 2 2 2 2 2 2 2 2 2 2 2 2 2 2 2 2 2 2 2 2 2 2 2 2 2 2 2 2 2 2 2 2 2 2 2 2 2 2
left_child=2 3 9 7 14 11 38 32 16 -1 -11 -5 -13 17 -3 29 -9 18 19 -14 -7 23 -23 26 -15 46 27 28 -16 -8 -31 48 -2 -33 -35 -24 -37 49 39 -4 41 -41 43 -43 -44 -22 -18 -48 -32 -6 51 52 54 -54 -51 -55 -57 -49 59 -59 -60 62 -62
right_child=1 4 6 5 37 20 15 8 -10 10 -12 12 13 24 21 -17 25 -19 -20 -21 45 22 35 -25 -26 -27 -28 -29 -30 30 31 33 -34 34 -36 36 -38 -39 -40 40 -42 42 44 -45 -46 -47 47 57 -50 50 -52 -53 53 55 -56 56 -58 58 60 -61 61 -63 -64
leaf_value=-0.10880288907730513 -0.059961866803594381 -0.0092604735223170628 -0.081437476933383796 0.11723542170036763 0.045825484527772554 0.0062712573212714284 -0.087148436806915211 -0.05845342997022035 -0.032598202379108092 -0.098183256917388204 -0.041592866350446574 -0.040652995951032875 0.073030410270840646 0.062191095173039029 0.037958554119118346 0.018458906116412134 0.055309375981810661 0.026489880366542862 0.08388585178199337 -0.018817319478605959 -0.10999556561496499 0.096889580065549263 0.037051665187351361 -0.016243940623788429 0.12691617415774736 0.058371146358356885 0.079752233109902912 0.10937857550049659 -0.029850934799879249 0.06148650730828438 -0.020007595671584385 0.048375792682847987 -0.022200078921772573 -0.084967583054969514 0.010773975119289538 0.12941924873533045 0.038411643287798822 0.13782086579991731 -0.10544849270666456 -0.093451378486776371 0.032569402829453538 -0.034990649998167332 -0.11405463858607333 0.11095540719236144 -0.018897413468511433 -0.032559545276800071 -0.036039381005570408 -0.024095294865908039 -0.11906267096355663 0.079092441808507274 0.021819867958116468 0.10520214724944227 0.019474659516019063 0.031220725100188057 0.11814022092305648 0.1124012222539213 0.056829642535048498 0.13207782911976354 0.067604736674354279 0.028669684034617011 5.6272992356158929e-05 0.045264283323617101 -0.077361961681703284
leaf_weight=165.52313058078289 26.596776932477951 9.3613405972719175 34.966784432530403 6.9157430231571189 16.231321215629578 8.6265182495117205 5.164143130183219 5.0140321925282469 26.303729526698589 71.88131444901228 23.812703996896744 6.800379902124404 5.844440132379531 37.449886605143547 105.36618712544441 17.236749291419983 8.3179492875933629 74.828596711158752 23.370310083031654 9.3165033012628538 4.9568773806095114 19.615772172808647 54.007193803787231 9.4975079447031003 6.6377092003822318 10.483575835824011 12.242171153426169 5.7624127417802802 9.68559582531452 3.203509762883189 3.0610497817397135 5.1072710901498821 29.964859753847122 5.263735979795455 9.1936173737049085 6.139168053865431 7.5293728113174438 5.5550033450126639 12.456016831099985 9.8141961842775363 3.8524439558386794 3.6983798295259502 6.9842598065733892 3.4430779665708542 5.1298502460122108 8.5965987145900709 17.778213024139404 9.4602139666676504 5.1358408033847809 67.587851464748383 5.3807478994131079 35.244470864534378 10.305462718009947 8.3929232507944089 15.148608207702635 13.079340875148775 12.965879514813421 5.2168171107768995 5.3244600147008887 4.8239206820726395 28.084984123706818 10.596677705645559 4.2955268621444693
leaf_count=2001 222 40 347 32 71 47 32 29 187 823 192 33 24 157 447 84 40 309 99 41 60 84 220 41 32 43 51 24 47 20 24 31 194 35 54 26 31 28 120 92 27 31 65 24 43 53 94 49 39 297 24 159 45 38 72 59 59 24 24 22 132 46 20
internal_value=0 0.373866 -0.819385 0.136354 0.587304 0.368717 -0.471347 -0.097316 0.0286662 -0.997537 -0.841012 0.461544 0.431615 0.467815 0.420617 -0.132812 0.113939 0.369985 0.574066 0.165894 -0.347627 0.44152 0.571117 0.362163 0.719359 0.147491 0.399609 0.359288 0.3225 -0.284239 -0.186302 -0.278752 -0.399567 -0.0516886 -0.240843 0.45582 0.792873 0.797279 -0.696205 -0.630469 -0.435143 -0.535972 -0.332843 0.353736 -0.737593 -0.6088 0.0987877 0.0546318 -0.820715 0.779773 0.810817 0.830413 0.769144 0.596668 0.862419 0.716941 0.847365 0.163454 0.229028 0.823969 0.105355 0.0346512 -0.102139
internal_weight=0 814.704 394.928 385.605 429.098 193.344 133.711 192.262 135.7 261.217 95.694 171.164 164.248 157.447 239.207 53.3659 109.396 113.36 38.5313 15.1609 22.18 229.845 87.2915 142.554 44.0876 104.382 133.056 120.814 115.052 36.1292 30.965 27.7615 56.5616 19.5646 14.4574 67.6757 13.6685 189.892 80.345 67.889 32.9222 29.0698 19.2556 7.14146 12.1141 13.5535 93.8988 85.5808 8.19689 184.337 168.105 162.725 127.48 44.7436 82.7365 34.4381 26.0452 67.8026 58.3424 10.0407 48.3016 42.9772 32.3805
internal_count=7960 3876 4084 2013 1863 887 1068 1126 710 3016 1015 727 695 662 1011 319 523 473 164 65 160 971 361 610 189 494 569 518 494 235 203 183 416 120 89 277 57 852 749 629 282 255 163 55 108 113 451 411 63 824 753 729 570 201 369 156 118 317 268 46 222 198 152
shrinkage=0.1


Tree=12
num_leaves=64
num_cat=0
split_feature=2 1 2 2 2 0 0 3 2 3 1 1 0 0 1 2 0 2 3 3 1 3 3 0 0 0 3 3 3 3 0 1 3 1 3 3 1 3 3 3 3 3 1 2 2 3 0 1 0 0 2 2 1 1 3 0 0 0 3 1 3 0 1
split_gain=325.201 35.3283 21.6717 19.9541 13.8558 9.59762 5.74832 5.50683 4.43094 4.2917 4.18096 6.94907 4.79273 6.26342 4.64821 3.9122 5.67177 3.47763 4.42088 3.73817 3.80588 7.40587 3.13433 3.26812 3.12816 3.04473 3.94664 3.55472 2.9574 2.7717 2.67405 3.10141 3.27522 4.25072 3.21056 2.4519 2.4645 2.77483 2.74801 2.37052 2.394 3.29703 6.03924 2.33352 2.30714 2.59331 4.83027 3.42241 2.30371 2.28737 4.46909 2.22501 2.22465 2.20713 2.18718 2.52892 2.24648 2.13949 2.08436 3.96995 3.38008 2.43671 2.06943
threshold=0.045000000000000005 0.96500000000000008 0.26500000000000007 0.015000000000000001 0.22500000000000003 1.0050000000000001 0.7350000000000001 37.500000000000007 0.57500000000000007 10.500000000000002 0.93253786835582508 0.93753786835582498 0.99500000000000011 0.91500000000000015 0.77500000000000013 1.0000000180025095e-35 0.9850000000000001 0.085000000000000006 79.500000000000014 63.000000000000007 0.94500000000000006 323.00000000000006 292.00000000000006 1.3550000000000002 0.9850000000000001 1.155 120.00000000000001 76.500000000000014 402.50000000000006 71.500000000000014 0.71500000000000008 0.80500000000000016 158.50000000000003 0.74500000000000011 45.000000000000007 75.500000000000014 1.385 455.00000000000006 373.50000000000006 408.50000000000006 192.00000000000003 89.000000000000014 0.87500000000000011 0.065000000000000016 0.25500000000000006 402.50000000000006 0.84500000000000008 0.93253786835582508 0.89500000000000013 0.76500000000000012 0.12500000000000003 0.03500000000000001 0.8650000000000001 0.75500000000000012 186.50000000000003 1.175 1.175 0.97500000000000009 289.00000000000006 1.0050000000000001 285.50000000000006 1.0250000000000001 1.2050000000000003
decision_type=2 2 2 2 2 2 2 2 2 2 2 2 2 2 2 2 2 2 2 2 2 2 2 2 2 2 2 2 2 2 2 2 2 2 2 2 2 2 2 2 2 2 2 2 2 2 2 2 2 2 2 2 2 2 2 2 2 2 2 2 2 2 2
left_child=3 2 6 15 7 30 28 43 62 -8 14 -12 13 -13 -4 -1 -17 18 -11 -19 24 -22 23 25 29 27 -27 -7 -2 -21 -5 32 -32 -34 -33 -9 37 38 54 40 41 -16 -43 -3 45 49 -47 52 -20 50 -31 -36 -48 -51 55 -37 58 -41 60 -60 -56 -61 -6
right_child=1 4 10 5 8 22 9 35 -10 17 11 12 -14 -15 39 16 -18 19 48 20 21 -23 -24 -25 -26 26 -28 -29 -30 44 31 34 33 -35 51 36 -38 -39 -40 57 -42 42 -44 -45 -46 46 47 -49 -50 53 -52 -53 -54 -55 56 -57 -58 -59 59 61 -62 -63 -64
leaf_value=-0.10765708283390329 -0.033322844871336903 -0.087168967476218634 0.017180050313527147 -0.10072118388072644 0.058852270613636959 -0.10350738541401126 -0.078983373448010735 0.077861639666688437 0.10437640658920909 -0.081666118494654091 -0.032234357316727948 -0.014594754819139182 -0.046092704880274067 0.099519229339295481 0.081377321442233364 -0.096139229085048308 -0.038621992385783829 0.073720844049371029 -0.030804260569163001 -0.065639455203604521 0.029011156257757055 -0.14384225088659242 0.065090811865972958 -0.093583220116889104 0.065651186474161696 0.085704438807896702 -0.040498068607048292 0.0031334701260827668 -0.11439779976019347 0.14092268153375045 -0.064626002028265669 0.017773297954248157 -0.078564893413490364 0.073031721268498592 -0.093305499926119639 0.030434160701564652 -0.022666977568831768 0.086081721730029537 -0.022288282729096692 0.036199419730947098 0.087603134490254336 -0.074689473778022805 0.081242756553945333 -0.0018371932606878732 -0.032541674789192759 -0.025286808778388566 0.057173492268775918 -0.0021344993523378032 0.06874138826467073 -0.066910288513464075 -0.019004996342116762 -0.042162532112565411 0.14928993461429113 0.0030910809326335047 0.033064035012446341 -0.04015473306998666 0.088463033366267874 0.1015493271581899 -0.046602041818911422 -0.0079162070623450525 0.12074742109149504 0.074140898950946776 0.082202112747190359
leaf_weight=151.28413910418749 31.768327131867409 4.1987788304686573 48.282763034105301 17.584060750901699 164.80961272120476 4.695960268378264 6.8780843764543524 13.446809500455855 31.541110411286354 10.660478524863722 21.610783234238625 7.0331936329603257 4.8684211522340766 15.215463444590567 11.097339853644373 66.353704668581486 23.117506921291351 7.8973547369241706 5.3796218335628492 5.5467193424701682 4.9972566217184049 4.9180890619754791 5.6128916740417472 4.6288344711065283 8.6475519388914091 6.6252201199531537 3.9584777504205704 9.3483163118362409 5.2415487915277472 3.3896664828062049 8.220006890594961 3.7982124239206305 2.7332684844732267 5.7212007641792297 29.038313634693623 23.168692365288738 7.5108231157064429 10.233089804649351 8.7004178464412671 61.5259670317173 31.061641007661819 5.0452666729688627 4.8921574950218201 13.53626626729965 13.348703816533087 7.0976544767618206 4.997033089399336 4.1084004342555991 4.0940033569931984 4.7979944050312033 3.6063142567873001 12.031149260699747 5.5154391676187515 73.549370437860489 13.410342961549761 6.4989499598741522 11.280671715736387 5.4538736641407004 6.7733156234025982 5.6201290041208258 6.5405591130256644 10.162799373269079 49.313093513250351
leaf_count=2001 257 24 208 183 719 30 48 56 163 84 160 30 21 67 51 823 192 40 38 33 22 21 27 24 37 33 20 60 49 22 83 37 24 44 283 106 33 43 41 257 134 22 21 58 74 36 22 27 24 30 21 104 23 375 56 28 47 24 28 23 27 42 220
internal_value=0 0.330799 0.134439 -0.815342 0.550404 -0.470677 -0.0892199 0.300635 0.693843 -0.015206 0.358463 0.100676 0.4378 0.634458 0.433519 -0.978539 -0.81278 0.0156715 -0.37493 0.0672693 0.0306602 -0.567255 -0.0335843 -0.164904 0.0747042 -0.0200073 0.385026 -0.325238 -0.448051 0.0347604 -0.663297 -0.565032 -0.196789 0.240216 -0.701884 0.37555 0.326233 0.366791 0.311934 0.53964 0.699625 0.439128 0.0207539 -0.220395 0.0665985 0.115476 0.423993 0.752573 0.122141 0.036963 0.584826 -0.783234 1.05503 -0.011958 0.36769 0.149711 0.48792 0.415206 0.38264 0.174381 0.618095 0.449213 0.642298
internal_weight=0 819.272 432.526 354.751 386.745 113.996 216.44 141.082 245.664 179.43 216.087 48.7279 27.1171 22.2487 167.359 240.755 89.4712 172.552 20.1341 152.418 144.52 9.91535 34.8697 29.2568 134.605 24.628 10.5837 14.0443 37.0099 125.957 79.1262 61.5422 16.6745 8.45447 44.8677 123.347 109.9 102.389 92.1559 119.076 52.0964 21.0348 9.93742 17.735 120.411 107.062 21.7185 14.6209 9.47363 85.3433 6.99598 41.0695 10.5125 78.3474 83.4555 29.6676 53.7878 66.9798 42.5071 22.5562 19.9509 15.7829 214.123
internal_count=7960 3992 2278 3968 1714 952 1283 612 1102 977 995 278 118 97 717 3016 1015 929 146 783 743 43 194 167 700 143 53 90 306 663 758 575 151 68 424 530 474 441 398 509 228 94 43 82 630 556 108 72 62 448 43 387 45 405 357 134 223 281 176 93 83 65 939
shrinkage=0.1


Tree=13
num_leaves=64
num_cat=0
split_feature=2 2 2 1 0 0 0 0 2 0 0 1 2 3 3 3 3 1 3 2 3 3 2 1 1 2 0 0 1 3 3 3 1 3 3 2 3 0 3 3 2 3 3 1 1 3 3 0 0 3 1 1 1 1 1 0 1 2 0 0 0 2 3
split_gain=279.522 29.5435 19.7379 16.7992 12.2166 8.58852 5.19905 4.68297 4.13185 5.59463 3.61387 3.3259 3.6818 3.78128 3.67116 3.09154 4.17264 3.08305 3.03716 3.12542 2.80567 2.4789 2.29698 2.14816 2.99241 2.14812 3.39736 2.13293 2.7656 2.38657 2.11977 2.09161 2.78427 2.06254 2.91712 2.49036 1.97204 2.50371 1.90529 1.83869 2.89845 1.83057 1.82208 2.46995 2.39303 1.74871 1.71704 2.42286 3.02943 3.08355 1.87 1.70748 3.96324 1.70151 7.07415 4.03883 2.37371 1.87081 2.67066 1.83335 3.34106 1.65254 1.6421
threshold=0.045000000000000005 0.26500000000000007 0.015000000000000001 0.95500000000000007 0.94500000000000006 0.94500000000000006 0.93022652161938868 0.7350000000000001 1.0000000180025095e-35 0.9850000000000001 0.93522652161938868 0.94500000000000006 0.085000000000000006 79.500000000000014 10.500000000000002 12.500000000000002 59.500000000000007 0.90500000000000014 37.500000000000007 0.065000000000000016 402.50000000000006 2.5000000000000004 0.57500000000000007 1.5150000000000003 1.2050000000000003 0.31500000000000006 1.1250000000000002 0.71500000000000008 0.80500000000000016 391.50000000000006 401.50000000000006 158.50000000000003 0.74500000000000011 401.50000000000006 192.00000000000003 0.28500000000000009 25.500000000000004 0.9850000000000001 443.00000000000006 289.00000000000006 0.065000000000000016 295.50000000000006 181.00000000000003 1.0150000000000003 1.135 45.000000000000007 292.00000000000006 1.3550000000000002 1.155 120.00000000000001 0.99500000000000011 1.0750000000000004 1.1150000000000004 0.96500000000000008 0.91500000000000015 0.99500000000000011 1.0950000000000004 0.57500000000000007 1.0350000000000004 1.1150000000000004 1.0750000000000004 0.44500000000000006 455.00000000000006
decision_type=2 2 2 2 2 2 2 2 2 2 2 2 2 2 2 2 2 2 2 2 2 2 2 2 2 2 2 2 2 2 2 2 2 2 2 2 2 2 2 2 2 2 2 2 2 2 2 2 2 2 2 2 2 2 2 2 2 2 2 2 2 2 2
left_child=2 3 8 7 6 27 15 20 -1 -10 30 12 13 -9 -14 -3 -17 33 19 -5 39 -6 -19 24 25 26 -23 -4 31 45 -8 -29 -33 34 35 -18 -16 62 -32 40 -2 42 43 -11 -45 -30 47 48 50 -50 -7 -52 -53 54 -27 -56 59 58 -58 60 -55 -36 -38
right_child=1 4 5 18 21 46 10 11 9 41 -12 -13 14 -15 36 16 17 22 -20 -21 -22 23 -24 -25 -26 53 -28 28 29 -31 38 32 -34 -35 61 -37 37 -39 -40 -41 -42 -43 -44 44 -46 -47 -48 -49 49 -51 51 52 -54 56 55 -57 57 -59 -60 -61 -62 -63 -64
leaf_value=-0.10661503309480631 0.01727746749475912 0.10558796391494606 -0.098616210575788454 -0.082275663051683795 0.13150963454021025 0.0082534669792072215 0.0089689528333121143 -0.08569077670425003 -0.094122229647895142 -0.1148393423518269 0.045523785955458348 -0.070046316601738753 -0.069362926226044827 0.0063844752193590055 0.071302247172932862 -0.041369680989754215 0.066467158089434319 0.052092796200829898 0.036913765381956863 0.015161062511885271 -0.11285964506801789 0.053240257650619106 0.11839108008657923 0.0065436150885680271 0.092092429134570594 0.1016082581990518 -0.026676431937430523 -0.060580299191758571 -0.0080698373415229278 0.0092580220879863468 -0.10867036854112327 -0.075213449391810905 0.049442083230328747 0.020427402453725083 0.10293250989113648 -0.017281984306086153 0.00017822909334949482 0.059163162405527492 -0.027247654077829919 0.0061590858400066943 -0.067712107593837681 0.01652670155580856 -0.088310275364798144 0.069034535730684535 -0.044676941504552981 -0.089990862827771134 0.034364732189913053 -0.088340134260128891 0.074321652274230376 -0.037124977164417601 -0.089484894203095897 0.065954287085646809 -0.081767971291913086 0.085656328810501614 0.040998747787414219 -0.070525000943256116 -0.027976789024389156 0.09589044714511516 0.05390315370572403 0.13047089278486229 0.0043037338941764565 0.048340756216929855 0.041768645982729641
leaf_weight=138.15725552290678 5.3227889686822953 6.5119822919368735 16.233094036579132 4.0134500339627293 5.5678955167531958 7.8741058632731464 8.5125134438276309 9.4068208858370799 61.260853745043278 2.2504180669784599 9.1683913618326205 6.8997245281934729 6.1926535964012137 8.481770955026148 4.9501501768827429 6.7979875504970542 5.7684309333562842 36.561869621276855 167.20414016395807 18.314392879605293 4.8040667325258246 26.974184319376945 6.0972976088523856 6.3314345031976691 35.382096603512764 10.860358431935312 6.6261558830738059 7.7116076573729542 2.8833888620138195 3.1612015366554251 4.4052095711231223 2.5777258500456792 5.8767756223678589 75.074428483843803 9.7168398946523684 9.2348701655864698 117.64141599088907 8.6367424130439741 8.2674238979816419 9.4111807048320753 16.3028394728899 5.1535168886184684 7.538900524377822 3.2631061971187592 4.2757943272590637 27.058674424886703 7.235681675374507 4.4240046739578238 6.8621466755866987 3.8900435417890549 6.6363802030682546 3.1303912699222565 4.3260533213615417 50.050771743059158 7.4970222860574705 5.7285963743925095 4.5686516463756552 8.3926419466733915 31.100931644439697 7.3872747719287863 5.6145638823509207 12.914923638105391 10.326548635959623
leaf_count=2001 50 32 183 24 31 61 47 79 823 20 41 32 46 57 25 33 24 157 717 78 49 115 32 29 170 50 28 82 30 27 60 24 43 309 44 41 623 37 53 69 138 38 67 29 38 291 38 24 33 20 50 20 26 235 35 25 21 46 143 35 26 55 51
internal_value=0 0.301675 -0.788276 0.107434 0.489676 -0.441666 0.311732 -0.088527 -0.959912 -0.784642 -0.0692688 -0.020201 0.00813592 -0.420338 0.0600136 0.380292 0.353163 0.386716 0.322879 -0.0235328 -0.417444 0.656671 0.615688 0.638919 0.657057 0.600406 0.374803 -0.671787 -0.568208 -0.733775 -0.296262 -0.229178 0.114354 0.300053 0.491114 0.149177 0.0929835 0.0705151 -0.555515 -0.307368 -0.467933 -0.357975 -0.513591 -0.229024 0.0454146 -0.82102 -0.102011 -0.188828 -0.0949135 0.340013 -0.307798 -0.525889 -0.197507 0.658183 0.418028 -0.0730709 0.712184 0.534107 0.434158 0.836627 0.774509 0.717795 0.0353442
internal_weight=0 809.023 331.781 397.909 411.115 109.881 199.032 208.377 221.9 83.7426 30.3535 172.536 165.636 17.8886 147.748 168.679 162.167 155.369 189.532 22.3278 35.8409 212.083 42.6592 206.515 200.183 164.801 33.6003 65.5025 49.2694 33.1033 21.1851 16.1661 8.4545 112.709 37.6351 15.0033 141.555 136.605 12.6726 31.0368 21.6256 22.4817 17.3282 9.78932 7.5389 29.9421 44.3788 37.1431 32.7191 10.7522 21.9669 14.0928 7.45644 131.201 24.086 13.2256 107.115 44.0622 35.6696 63.0526 55.6653 22.6318 127.968
internal_count=7960 3992 3968 2075 1917 952 928 1256 3016 1015 201 950 918 136 782 727 695 662 819 102 306 989 189 958 929 759 143 680 497 348 160 149 67 473 164 65 736 711 113 257 188 192 154 87 67 321 272 234 210 53 157 96 46 616 110 60 506 210 164 296 261 99 674
shrinkage=0.1


Tree=14
num_leaves=64
num_cat=0
split_feature=2 2 2 1 0 0 2 0 0 0 0 1 3 2 1 3 3 3 1 0 1 3 1 3 2 3 3 3 0 2 0 1 3 2 2 3 3 0 3 3 2 2 3 0 1 1 1 2 0 3 3 3 2 3 0 1 1 0 3 3 3 3 3
split_gain=240.308 24.8949 19.4587 13.6492 10.5855 7.70585 4.34377 5.46729 4.24867 3.9651 2.99487 2.74146 3.10383 4.45791 3.69624 2.70772 3.41441 2.65476 2.63479 2.52406 2.76209 3.02768 5.03606 2.45441 2.6428 2.38071 2.37622 2.16155 2.40523 2.16032 2.07926 2.46993 3.04234 2.35023 2.07235 4.28075 2.23319 1.99621 3.04859 2.42862 1.95779 3.56011 1.94134 1.87488 2.4421 1.84423 2.6875 1.91145 2.79538 1.83237 2.56294 2.53644 2.01749 2.54948 1.80808 2.24044 3.1453 1.91632 2.72969 1.76609 1.70596 1.69323 1.60795
threshold=0.045000000000000005 0.26500000000000007 0.015000000000000001 0.95500000000000007 0.94500000000000006 1.0050000000000001 1.0000000180025095e-35 0.9850000000000001 0.93022652161938868 0.7350000000000001 0.93522652161938868 0.94500000000000006 152.50000000000003 0.21500000000000002 0.75500000000000012 12.500000000000002 59.500000000000007 402.50000000000006 0.90500000000000014 0.71500000000000008 0.78500000000000014 158.50000000000003 0.74500000000000011 37.500000000000007 0.065000000000000016 361.00000000000006 2.5000000000000004 292.00000000000006 1.3550000000000002 0.57500000000000007 0.93022652161938868 0.88500000000000012 17.500000000000004 0.12500000000000003 0.03500000000000001 45.000000000000007 148.50000000000003 1.155 76.500000000000014 120.00000000000001 0.44500000000000006 0.36000000000000004 73.500000000000014 0.90500000000000014 0.89500000000000013 1.5150000000000003 1.2050000000000003 0.31500000000000006 1.1250000000000002 401.50000000000006 192.00000000000003 135.00000000000003 0.44500000000000006 241.00000000000003 0.93522652161938868 0.88500000000000012 0.91500000000000015 0.93022652161938868 289.00000000000006 97.500000000000014 79.500000000000014 59.500000000000007 69.500000000000014
decision_type=2 2 2 2 2 2 2 2 2 2 2 2 2 2 2 2 2 2 2 2 2 2 2 2 2 2 2 2 2 2 2 2 2 2 2 2 2 2 2 2 2 2 2 2 2 2 2 2 2 2 2 2 2 2 2 2 2 2 2 2 2 2 2
left_child=2 3 6 9 8 19 -1 -8 15 17 40 12 13 30 25 -3 -17 -2 43 -4 21 -21 -23 24 -5 -14 -6 28 37 -20 31 32 -11 60 35 -22 -36 38 -7 -39 41 -10 -35 44 49 46 47 48 -28 50 51 -18 -52 -54 57 -56 -57 -16 -59 -15 -34 -49 -25
right_child=1 4 5 23 26 27 7 -9 10 11 -12 -13 14 59 54 16 18 -19 29 20 34 22 -24 62 -26 -27 45 -29 -30 -31 -32 -33 33 42 36 -37 -38 39 -40 -41 -42 -43 -44 -45 -46 -47 -48 61 -50 -51 52 -53 53 -55 55 56 -58 58 -60 -61 -62 -63 -64
leaf_value=-0.10566100575167088 -0.028365031961809464 0.099141079032608645 -0.096563180538955157 -0.07763388042074898 0.12766454195826674 -0.097513985890592944 -0.092114619493965835 -0.033267211637705865 -0.0015588581317513238 -0.1269196280241692 0.04159154074198166 -0.064129427897795951 -0.091806135469663819 0.097345007958243135 0.016565788442795337 -0.037753057694807461 0.065358415154706251 -0.11150230332445621 0.04747400819185843 -0.060100872778582906 0.051005669106813603 -0.071910067621712426 0.11225793905934044 0.075504505601224084 0.013622479776158611 0.0086390412720942378 0.048554528940939472 0.053131042824234025 -0.083427608127031871 0.11350495676840229 -0.060490385090892274 0.029602945168835271 -0.10203041576075969 -0.027933906160193003 -0.070263781648092244 -0.087388143107645644 0.0095654872096373866 0.064936715872715906 0.0048046909101965088 -0.034000582122485468 0.020774663013126388 -0.10026801257552975 0.069297424374063471 0.07538256982646796 -0.04333991586920867 0.0059034772786292558 0.086333126746439504 0.0034280056491186026 -0.023884036462167156 0.017822198374230647 0.11162052874868511 -0.021976023917155443 0.089944634661174694 -0.0071198531996341423 -0.011854393543623649 0.11612267853100518 0.020964268972284605 0.033624399734336848 -0.055447292663164366 0.0059551652444672478 -0.016170639531754481 0.063273344236392415 0.030961782527478218
leaf_weight=126.08110108226538 30.364724792540073 6.2554203420877448 14.984775923192499 3.8373996540904072 5.1818787157535544 4.2496782615780893 56.578185312449932 21.898105591535568 7.9308233857154864 3.0285685732960763 9.0387281626462954 6.7886588498949996 5.5262517333030683 3.859943822026251 67.431428104639053 6.709132879972457 5.6762797981500652 4.3970994651317588 36.130421474575996 5.7608205005526525 2.42730584740639 2.4340844675898552 3.8070915341377258 8.540855720639227 18.343002468347549 4.1179859936237335 26.637747019529343 5.8072340935468665 4.2264859378337851 5.742230996489524 16.001043722033501 8.539079047739504 3.9995950311422366 4.1049143970012647 6.9494109228253347 28.217968828976154 7.0688184201717377 7.0572399348020536 9.2509856894612295 3.826232835650444 5.9927552938461295 6.7752956748008728 4.1089810132980347 7.5151292830705634 5.1695862710475913 6.3169792890548697 34.039219617843628 4.9170425534248343 6.6589176058769217 67.585223823785782 7.4120716005563763 8.0297354310750944 5.7093288898468 5.1441928446292877 5.3194524645805386 6.3882392793893796 7.6128864586353302 5.4036400467157355 9.470866844058035 4.6763212978839874 5.4914269000291824 122.8160999417305 158.58772525936365
leaf_count=2001 257 32 183 24 31 30 823 192 48 22 41 32 35 20 328 33 26 49 157 63 24 24 25 36 78 26 115 27 24 32 118 49 31 21 71 309 59 33 60 20 35 77 21 33 22 29 170 23 28 278 34 34 25 21 23 27 33 31 74 22 37 593 681
internal_value=0 0.275053 -0.761416 0.0969223 0.449896 -0.413837 -0.941644 -0.756938 0.283939 -0.0807939 -0.0643214 -0.0184948 0.00711673 -0.190062 0.102471 0.345924 0.320817 -0.388812 0.351218 -0.600647 -0.504129 -0.078228 0.404317 0.2909 -0.0216565 -0.489171 0.608019 -0.0249395 -0.137844 0.565292 -0.315044 -0.1566 -0.343015 -0.184584 -0.618578 -0.764264 -0.300092 -0.0171321 -0.274027 0.30154 -0.27403 -0.470354 0.207058 0.271356 0.236735 0.590815 0.608036 0.55407 0.340677 0.271532 0.468781 0.141931 0.71404 0.439394 0.158617 0.43392 0.643818 0.0939926 -0.230892 0.4728 -0.523527 0.609696 0.332381
